<?xml version="1.0"?>
<opencv_storage>
<opencv_ml_svm>
  <format>3</format>
  <svmType>C_SVC</svmType>
  <kernel>
    <type>RBF</type>
    <gamma>0.02</gamma></kernel>
  <C>2.5</C>
  <term_criteria><epsilon>1.1920928955078125e-07</epsilon>
    <iterations>1000</iterations></term_criteria>
  <var_count>1764</var_count>
  <class_count>5</class_count>
  <class_labels type_id="opencv-matrix">
    <rows>5</rows>
    <cols>1</cols>
    <dt>i</dt>
    <data>
      0 1 2 3 4</data></class_labels>
  <sv_total>5</sv_total>
  <support_vectors>
    <_>
      0.235617802 0.129365921 0.234586865 0.0909602642 0.235617802
      0.140837342 0.183640346 0.129975379 0.235617802 0.112268537
      0.0644826815 0.0692176744 0.0847554058 0.235617802 0.10620068
      0.138069928 0.0623261109 0.115555376 0.235617802 0.122673243
      0.235617802 0.155618861 0.235617802 0.151866615 0.210992157
      0.182046697 0.235617802 0.186606035 0.0507963337 0.0951048806
      0.0841830149 0.235617802 0.0992926061 0.0979793444 0.107884906
      0.215810835 0.0616912097 0.0158106629 0.0263287984 0.026283972
      0.19027707 0.0180276372 0.0447716378 0.0102113206 0.0554274246
      0.273958772 0.156524554 0.205870807 0.0795815289 0.273958772
      0.0187249966 0.230920076 0.0676898733 0.273958772 0.112389788
      0.0281475987 0.0292213373 0.0201016944 0.273958772 0.0293603167
      0.0199053194 0.0289022848 0.112486497 0.273958772 0.273958772
      0.273958772 0.0125869121 0.273958772 0.166686326 0.193597242
      0.219787985 0.273958772 0.241149932 0.153119996 0.177117735
      0.0649154335 0.17374374 0.0387920439 0.165538564 0.0800639838
      0.241149932 0.153309107 0.0976493955 0.136984035 0.0420423374
      0.189867929 0.0401703008 0.106381893 0.0618524663 0.182818443
      0.241149932 0.221916839 0.17042163 0.0225752313 0.241149932
      0.12233635 0.241149932 0.23884736 0.241149932 0.220904857
      0.0339769274 0.064894259 0.0275373477 0.241149932 0.029889591
      0.241149932 0.160290301 0.188955769 0.0706180483 0.0313574933
      0.0603607446 0.0219385047 0.251374364 0.0137029244 0.0557635836
      0.0226613656 0.0744899958 0.269798011 0.265462309 0.214748606
      0.124862358 0.269798011 0.0238775872 0.249636173 0.0904388353
      0.269798011 0.113099173 0.00515976036 0.0306133106 0.0428981595
      0.269798011 0.0148040336 0.0872411579 0.0282371454 0.094248496
      0.269798011 0.131687194 0.163891762 0.174182534 0.269798011
      0.109850176 0.269798011 0.0968127623 0.269798011 0.245372087
      0.23133634 0.160837874 0.0669955537 0.214017764 0.0602014028
      0.126565978 0.135301679 0.245372087 0.231461748 0.0822931975
      0.154067606 0.0112373363 0.245372087 0.066891633 0.0718948543
      0.123136856 0.245372087 0.245372087 0.157344013 0.134162202
      0.0601134263 0.195065483 0.114528671 0.245372087 0.0619496703
      0.245372087 0.22896491 0.12474037 0.0825239196 0.0163188744
      0.209364906 0.0867675468 0.141644582 0.0149693694 0.226641223
      0.139203623 0.0248132665 0.0873231292 0.00878200214 0.276176691
      0.0275945961 0.0413987115 0.025054004 0.134952292 0.276176691
      0.070345819 0.222495168 0.0563640259 0.276176691 0.0754822046
      0.193017587 0.159287944 0.276176691 0.134278059 0.0608361475
      0.0188629795 0.0139251612 0.276176691 0.0490603261 0.0216988586
      0.00594420033 0.118118614 0.276176691 0.157466009 0.13086392
      0.130035594 0.276176691 0.105879791 0.276176691 0.164804146
      0.275204778 0.237031296 0.0554192849 0.159061447 0.0780977458
      0.214014664 0.0425027646 0.125026301 0.0876926556 0.237031296
      0.237031296 0.079898797 0.138763145 0.0897578523 0.237031296
      0.0180439819 0.117629848 0.0380912088 0.237031296 0.237031296
      0.0721889511 0.117982753 0.144916981 0.237031296 0.082179442
      0.237031296 0.139030978 0.237031296 0.237031296 0.0679356456
      0.123610072 0.14356862 0.237031296 0.0432481058 0.237031296
      0.114847571 0.216639444 0.241962895 0.0925129876 0.231195539
      0.127537057 0.241962895 0.115985394 0.177169964 0.0993210226
      0.241962895 0.205805719 0.0267617926 0.0915167034 0.0725753456
      0.241962895 0.0695170164 0.0677479059 0.0707647353 0.205919862
      0.241962895 0.0590237603 0.164366633 0.101817138 0.241962895
      0.165285915 0.241962895 0.0929002985 0.241962895 0.238394782
      0.0188203696 0.053232953 0.0800639242 0.241962895 0.110534959
      0.0729711726 0.06929373 0.241962895 0.105978288 0.0178493243
      0.0241907835 0.0188209713 0.260423452 0.0169957057 0.0161966234
      0.0280537046 0.0911144614 0.260423452 0.260423452 0.21905382
      0.0572427884 0.260423452 0.134327129 0.1324628 0.200368345
      0.260423452 0.10972254 0.0215318985 0.0333310217 0.0203344561
      0.260423452 0.0161428917 0.0179739185 0.0262953267 0.101063818
      0.260423452 0.18009387 0.260423452 0.25313288 0.260423452
      0.0733217001 0.132117257 0.158771053 0.260423452 0.234207496
      0.203152746 0.134640083 0.0610612035 0.218619049 0.104020625
      0.234207496 0.218502045 0.234207496 0.200552732 0.0323046744
      0.0642198473 0.0362466834 0.227563828 0.0261696149 0.203032717
      0.132501781 0.155951992 0.234207496 0.0985420793 0.234207496
      0.234207496 0.234207496 0.090959996 0.134727135 0.115681298
      0.234207496 0.189948648 0.0395381451 0.105484374 0.0934936032
      0.234207496 0.0435065627 0.119119018 0.0670185536 0.156906024
      0.114301287 0.0105806226 0.0402778983 0.0260278191 0.288069487
      0.0131378742 0.0778092816 0.0216336437 0.0835706517 0.309225202
      0.109892152 0.131584048 0.0769571438 0.309225202 0.0768439621
      0.309225202 0.120967358 0.309225202 0.106691688 0.0226469655
      0.0501455739 0.0179200172 0.309225202 0.00776470685 0.0440645926
      0.0209983364 0.0885309651 0.309225202 0.105026208 0.101934209
      0.0326249041 0.309225202 0.0328130312 0.0787112638 0.0958518311
      0.309225202 0.277936578 0.129936934 0.126053855 0.0313871168
      0.164858118 0.0695076808 0.217495263 0.0936129391 0.277936578
      0.24370712 0.0984847099 0.0755368471 0.0181016736 0.222985357
      0.0657439306 0.0818419605 0.043522656 0.264965206 0.277936578
      0.0802351609 0.0670424253 0.0155952163 0.277936578 0.0365580693
      0.0645957366 0.118609846 0.277936578 0.277936578 0.0548325181
      0.0441560224 0.0206351019 0.277936578 0.0645099953 0.0292040017
      0.0909841806 0.277936578 0.129673719 0.0317590907 0.00415533502
      0.0135070477 0.283507079 0.0439582653 0.0128498776 0.020892065
      0.12924996 0.283507079 0.105712846 0.126993001 0.0562754162
      0.283507079 0.0772212744 0.218866318 0.1541529 0.2544083
      0.157732278 0.0252335165 0.013454455 0.0176671017 0.283507079
      0.0596164539 0.0151292142 0.0372245088 0.177835718 0.283507079
      0.218776822 0.262146324 0.040286541 0.283507079 0.124321595
      0.106410183 0.129069358 0.283507079 0.231636241 0.0659627393
      0.105179429 0.0844343677 0.231636241 0.0663850904 0.210316285
      0.134642392 0.231636241 0.231636241 0.0633767769 0.107602581
      0.104469396 0.231636241 0.0339798555 0.180199057 0.104125373
      0.181416005 0.231636241 0.152602747 0.201097995 0.0733858794
      0.231636241 0.165286854 0.17778261 0.081502609 0.231636241
      0.215506077 0.0734913349 0.171185628 0.0701625869 0.231636241
      0.111694321 0.231636241 0.0571769252 0.177291945 0.256539911
      0.0424180217 0.141116068 0.0644622296 0.256539911 0.0616404414
      0.174999878 0.0477128997 0.256539911 0.196179509 0.019553937
      0.0557834618 0.0603792109 0.246903434 0.0488744751 0.0798735023
      0.0289583988 0.194335014 0.256539911 0.143204525 0.256539911
      0.0965285599 0.248878807 0.0639748424 0.256539911 0.041381035
      0.256539911 0.214305177 0.0234812908 0.0933966488 0.0582721829
      0.256539911 0.0627204254 0.223864034 0.0339529216 0.207447797
      0.0848452449 0.034133967 0.0241118371 0.0195175875 0.254637629
      0.0114834718 0.0325119533 0.0209611859 0.0742257461 0.267185301
      0.188286752 0.267185301 0.182774886 0.267185301 0.0783010274
      0.152190715 0.120074458 0.267185301 0.0627515391 0.0502488725
      0.0334829055 0.0215185992 0.267185301 0.0209522974 0.0430299863
      0.0380681194 0.0446480364 0.267185301 0.241978258 0.267185301
      0.144931883 0.267185301 0.070674777 0.158837155 0.193394691
      0.267185301 0.242657825 0.0855312571 0.23451826 0.185268283
      0.232006654 0.0943236649 0.110893033 0.0758802891 0.242657825
      0.198898807 0.0453824028 0.122643165 0.0774796605 0.242657825
      0.0482945479 0.08721596 0.0544542857 0.17403926 0.242657825
      0.129865423 0.242657825 0.127391949 0.223431528 0.0616395772
      0.168698445 0.170767799 0.242657825 0.168633357 0.0937891155
      0.168417215 0.0650896132 0.242657825 0.0385579057 0.158639744
      0.150054157 0.196669683 0.119558923 0.0258374438 0.0491749644
      0.0203704573 0.306791395 0.0155851291 0.0369936861 0.0262956955
      0.105164349 0.306791395 0.103047714 0.113979518 0.0384261087
      0.306791395 0.0283856485 0.0608931817 0.106866449 0.306791395
      0.0852689072 0.0491770469 0.0478609763 0.018994879 0.306791395
      0.0185601451 0.0695964172 0.0599798597 0.0822843164 0.306791395
      0.119081914 0.247501701 0.0470262095 0.306791395 0.0250928216
      0.216847017 0.136344805 0.306791395 0.276651353 0.0838675052
      0.0697615445 0.0229378548 0.249789327 0.0251624081 0.049770385
      0.107395001 0.276651353 0.276651353 0.076036498 0.030532714
      0.0474939011 0.276651353 0.0272820313 0.0354060307 0.0593925677
      0.276651353 0.276651353 0.104217954 0.169892788 0.080283545
      0.139425114 0.0203841832 0.12548013 0.0888490528 0.276651353
      0.276651353 0.0487545803 0.0681710169 0.153632417 0.276651353
      0.0194314402 0.071661137 0.0459446572 0.276651353 0.130889326
      0.0378776789 0.0125456667 0.0317626111 0.277007401 0.0183749571
      0.0174192525 0.013312812 0.148234233 0.277007401 0.223593742
      0.0971631631 0.0752454475 0.277007401 0.0967841223 0.116596125
      0.0950664431 0.277007401 0.121651798 0.0239861477 0.0176018719
      0.0630348101 0.277007401 0.00501041021 0.0245628078 0.0106844222
      0.126037791 0.277007401 0.277007401 0.249112487 0.238466412
      0.277007401 0.043865595 0.0915248841 0.0387689061 0.277007401
      0.231938481 0.15082781 0.106621191 0.054575406 0.231938481
      0.114765316 0.120642878 0.0445331372 0.231938481 0.213275686
      0.0877636224 0.146384984 0.0257384852 0.223978356 0.0823523477
      0.151949748 0.0277032759 0.174875498 0.231938481 0.231938481
      0.231938481 0.128822356 0.231938481 0.0657774135 0.119112276
      0.0532237142 0.231938481 0.231938481 0.183212817 0.182333291
      0.0241859723 0.231938481 0.0623742342 0.194993973 0.0721701831
      0.231938481 0.252373546 0.101441935 0.252373546 0.0739437491
      0.189778343 0.0418708324 0.215421483 0.0374478474 0.252373546
      0.176836297 0.0221987404 0.0920266509 0.0497022718 0.216831863
      0.0282575414 0.131058127 0.031751506 0.173517302 0.252373546
      0.168437824 0.252373546 0.128360197 0.252373546 0.0367604606
      0.252373546 0.130899817 0.252373546 0.180336848 0.0708033815
      0.0902346224 0.0683543533 0.252373546 0.00628245808 0.179737553
      0.113431036 0.158761919 0.0509972423 0.0189031661 0.0359892435
      0.0167335272 0.232643843 0.0106462641 0.0268202573 0.044818446
      0.0445715524 0.264954388 0.10557767 0.245534718 0.116428547
      0.264954388 0.0865583345 0.164352819 0.197717175 0.264954388
      0.0544163994 0.0323039964 0.0586730689 0.00568873575 0.264954388
      0.0021650875 0.0419428311 0.0354033224 0.0578982458 0.264954388
      0.162945449 0.264954388 0.14874047 0.264954388 0.264954388
      0.25731957 0.121396869 0.264954388 0.242853552 0.0926771313
      0.219008461 0.101707526 0.17906715 0.0547064915 0.125768453
      0.109181978 0.242853552 0.15639098 0.102982603 0.129610315
      0.0453150645 0.218116894 0.0188059397 0.0923377052 0.0754988939
      0.151663661 0.242853552 0.12677604 0.165419206 0.109509975
      0.242853552 0.242853552 0.242853552 0.118172534 0.242853552
      0.229616597 0.0703104883 0.0445685945 0.0252780542 0.242853552
      0.106114484 0.238082632 0.092949152 0.225198433 0.0589207076
      0.0473001637 0.0471642278 0.0104862824 0.252006769 0.00479429727
      0.0342828147 0.028729016 0.0507652648 0.276543856 0.0607065335
      0.232349455 0.0175569449 0.272896528 0.0230382215 0.143631294
      0.120285951 0.281332672 0.170421511 0.0279337466 0.0605834313
      0.00363866379 0.281332672 0.00584820239 0.0848790482 0.0389201157
      0.175987855 0.281332672 0.0852582008 0.281332672 0.021899024
      0.281332672 0.045576144 0.281332672 0.198454097 0.281332672
      0.25403747 0.0525725186 0.14594917 0.0542204864 0.132218868
      0.0427469835 0.122804768 0.0876551047 0.25403747 0.187118709
      0.0197384562 0.0455336086 0.101243146 0.25403747 0.0343695879
      0.0876061693 0.0520830005 0.202875972 0.25403747 0.0815215632
      0.25403747 0.0687683299 0.25403747 0.113306507 0.25403747
      0.160309717 0.25403747 0.25403747 0.089350231 0.0774007514
      0.0743375123 0.25403747 0.0908327103 0.234534368 0.0771859065
      0.209645271 0.0925033167 0.00801086798 0.013077422 0.0429959819
      0.270971537 0.00335990265 0.0319209322 0.0181383919 0.0950608477
      0.270971537 0.249864906 0.270971537 0.131407171 0.270971537
      0.0360487625 0.117836528 0.0544514693 0.270971537 0.0657476336
      0.0311943162 0.0226895567 0.0179253593 0.270971537 0.00610209769
      0.0653845519 0.0241896641 0.0479315259 0.263496429 0.125120819
      0.270971537 0.0925637856 0.270971537 0.0583107546 0.267557591
      0.188699156 0.270971537 0.22826533 0.179016963 0.22826533
      0.0725575238 0.162140712 0.0372886024 0.0939454809 0.0611371845
      0.22826533 0.208313465 0.162207708 0.172019854 0.0164403263
      0.22826533 0.0314281322 0.118212879 0.075115025 0.205447927
      0.227790788 0.0971296504 0.22826533 0.0957017541 0.22826533
      0.0696767494 0.22826533 0.188939974 0.22826533 0.149325848
      0.13907069 0.127893254 0.0439398997 0.22826533 0.0514141917
      0.200756282 0.178604707 0.207438126 0.268779129 0.132434964
      0.153639644 0.106728978 0.244966686 0.0278552175 0.237752646
      0.10037002 0.268779129 0.193345383 0.0748696402 0.078981787
      0.0593047068 0.26568079 0.00445845677 0.119594321 0.0718761012
      0.157164842 0.268779129 0.0679367408 0.136852667 0.0826008543
      0.268779129 0.0170876309 0.205163896 0.124524742 0.268779129
      0.230011955 0.0682428107 0.117299676 0.0520966351 0.268779129
      0.00959374662 0.101029485 0.0699813142 0.19781743 0.0435829647
      0.0267622918 0.0383888036 0.0036577438 0.219945177 0.00248884899
      0.0410375409 0.0179164298 0.0453191362 0.265814245 0.144841373
      0.25246495 0.0567180328 0.265814245 0.195380434 0.245702684
      0.102737352 0.265814245 0.0537776463 0.0291643254 0.0552318282
      0.00919184182 0.265814245 0.00536263827 0.0479785688 0.0254105199
      0.0482959524 0.265814245 0.1988765 0.265814245 0.0824991167
      0.265814245 0.174720541 0.265814245 0.137041584 0.265814245
      0.237283215 0.114161313 0.109224677 0.0482760444 0.237283215
      0.19991298 0.216415673 0.11704281 0.237283215 0.189678878
      0.0550917685 0.0431539007 0.0147630405 0.237283215 0.0795492157
      0.151438341 0.0807007179 0.201628625 0.237283215 0.159413695
      0.123026237 0.0767979398 0.237283215 0.237283215 0.237283215
      0.107758731 0.237283215 0.182032913 0.0975530446 0.0503901169
      0.0272206515 0.237283215 0.138221696 0.172160432 0.0711224303
      0.177444786 0.124053597 0.0198713001 0.0414041169 0.00353192491
      0.270867079 0.00580117851 0.0574484803 0.0248084702 0.126874283
      0.270867079 0.0574427061 0.270867079 0.0220809877 0.270867079
      0.0326162279 0.270867079 0.137921929 0.270867079 0.109826922
      0.0331627503 0.0521359742 0.011899136 0.270867079 0.00657752668
      0.0725143775 0.0316700526 0.0957739428 0.270867079 0.110362485
      0.270867079 0.0884779915 0.270867079 0.0698422715 0.270867079
      0.0856018066 0.25512898 0.240949795 0.06495478 0.174586967
      0.0786568299 0.240949795 0.0501773208 0.208474457 0.0812865943
      0.240949795 0.217376351 0.0805921704 0.076315172 0.079190582
      0.229618296 0.035468027 0.120750867 0.0346004218 0.177217662
      0.240949795 0.0694067702 0.240949795 0.153890699 0.240949795
      0.0917755365 0.240949795 0.0453884341 0.240949795 0.234191015
      0.0622523054 0.131848812 0.106943399 0.240949795 0.0542534105
      0.158399671 0.0445290208 0.240949795 0.0557496995 0.0364101678
      0.0259603411 0.0186982658 0.223010734 0.00655384175 0.0490825474
      0.0166722331 0.0482920483 0.274507314 0.0775315389 0.153877541
      0.0652905107 0.293687612 0.0549287498 0.293687612 0.151332185
      0.293687612 0.0686687082 0.0362648368 0.0598060489 0.0162034091
      0.293687612 0.00977825653 0.0707637444 0.0348345079 0.0919256881
      0.293687612 0.0862676352 0.0711457431 0.0326343216 0.293687612
      0.234358475 0.293687612 0.135787144 0.293687612 0.230412677
      0.0709374174 0.124309994 0.0666303858 0.230412677 0.0759408325
      0.216919363 0.142604977 0.230412677 0.172345728 0.112512551
      0.116786316 0.0311025139 0.230412677 0.068541877 0.147879601
      0.13429819 0.227760911 0.230412677 0.0762200207 0.0893093199
      0.0315141492 0.230412677 0.194087952 0.230412677 0.0833049417
      0.230412677 0.218058407 0.0871507004 0.158294648 0.0397609062
      0.230412677 0.116789721 0.222745702 0.1041274 0.230412677
      0.27766642 0.0631323308 0.160955369 0.0472647548 0.27766642
      0.0222561359 0.18002595 0.104093418 0.27766642 0.207831115
      0.0777558461 0.155801862 0.0363839194 0.274582118 0.0192027725
      0.0692066327 0.0469112396 0.204209983 0.27766642 0.0825044736
      0.123379901 0.0146870585 0.27766642 0.0442922935 0.161241695
      0.0653935 0.27766642 0.213300273 0.0549288243 0.0845331177
      0.0117415078 0.27766642 0.0410319753 0.0810919553 0.0333766304
      0.250441134 0.0468460396 0.0415544398 0.0457751192 0.0133641502
      0.222362071 0.00475435238 0.0434246995 0.0241404586 0.0363857858
      0.262854129 0.21833232 0.203615457 0.0817115232 0.262854129
      0.163160101 0.262854129 0.124114715 0.262854129 0.0458932072
      0.0561436191 0.0259201284 0.0137079349 0.250970155 0.0152210081
      0.0457540788 0.0166085344 0.0497324467 0.262854129 0.262854129
      0.229502916 0.184770077 0.262854129 0.149119377 0.219948247
      0.125480533 0.262854129 0.243847132 0.154619753 0.118835203
      0.0510520637 0.243847132 0.224367365 0.243847132 0.0868376717
      0.243847132 0.180681109 0.102960363 0.0731122941 0.0152007593
      0.243847132 0.117883645 0.135031968 0.0578780062 0.191581011
      0.243847132 0.19733949 0.162764087 0.0974752828 0.243847132
      0.0890536755 0.133238986 0.173685998 0.243847132 0.169075996
      0.110233068 0.0720286071 0.0171988253 0.243847132 0.0280446596
      0.0885549784 0.159912318 0.17798382 0.0942614675 0.0436193198
      0.0409934148 0.00733263511 0.261732429 0.006822614 0.0578512959
      0.0249204934 0.0912203118 0.261732429 0.14732787 0.261732429
      0.0652998611 0.261732429 0.0417676009 0.261732429 0.0820525587
      0.261732429 0.111514919 0.0673928484 0.0534289926 0.00294496026
      0.261732429 0.00920726825 0.0799908638 0.0460596494 0.106695659
      0.261732429 0.261732429 0.261732429 0.0098927943 0.261732429
      0.0267733615 0.261732429 0.0829802155 0.261732429 0.238361761
      0.0927397385 0.19808042 0.0948666409 0.238361761 0.0818343684
      0.238361761 0.0477742292 0.238361761 0.238361761 0.0676668659
      0.143964797 0.0574540123 0.238361761 0.0639900565 0.147189498
      0.0404585451 0.238361761 0.238361761 0.15593344 0.21080327
      0.0266428702 0.109552823 0.0229527038 0.238361761 0.068204321
      0.238361761 0.20637241 0.0708803013 0.203359887 0.0512085035
      0.193282515 0.044646211 0.20482415 0.0798334405 0.204266012
      0.0729634687 0.0355660543 0.0701086149 0.0133455116 0.295019001
      0.0115091288 0.0537716523 0.0296489205 0.0788221881 0.295019001
      0.0437379405 0.110028118 0.04765708 0.295019001 0.217982203
      0.2118368 0.128791586 0.295019001 0.0758709535 0.0346365124
      0.0977642089 0.0399753489 0.295019001 0.0311715864 0.095907025
      0.039527487 0.0691141933 0.295019001 0.108219415 0.281647235
      0.0528255217 0.295019001 0.0644752979 0.135653809 0.0518522449
      0.295019001 0.236508325 0.0506059192 0.124719433 0.0418557823
      0.231681481 0.152938932 0.198496073 0.0619291849 0.236508325
      0.212016687 0.0663489997 0.184174523 0.040168453 0.209913269
      0.0625404492 0.162276939 0.0543792211 0.221265927 0.236508325
      0.0730332285 0.179506481 0.0410308577 0.236508325 0.0708115399
      0.219532326 0.0608716942 0.236508325 0.236508325 0.0659267157
      0.157220051 0.0318765715 0.236508325 0.0843009949 0.236508325
      0.0979159549 0.236508325 0.267784208 0.0831041187 0.134751886
      0.031167848 0.267784208 0.0466600247 0.135318682 0.049795948
      0.267784208 0.183356002 0.0521916971 0.102616742 0.0156847406
      0.25441727 0.0397916771 0.0495209508 0.0193336364 0.181548968
      0.267784208 0.145120785 0.20119682 0.139290556 0.267784208
      0.146200925 0.267784208 0.11222174 0.267784208 0.194426879
      0.0526187085 0.0989835858 0.104691982 0.267784208 0.104804181
      0.0948960707 0.0465706959 0.164434627 0.0432843678 0.0403562784
      0.0244969279 0.00883521046 0.195788503 0.0142685017 0.0402326658
      0.0118423291 0.0453343913 0.277614802 0.252161145 0.155991673
      0.130385533 0.277614802 0.101357773 0.223178431 0.1034839
      0.277614802 0.0624766387 0.0658239499 0.0173948798 0.0270593725
      0.277614802 0.0322123915 0.0440671854 0.0143385269 0.0572491102
      0.277614802 0.277614802 0.19246538 0.098214291 0.277614802
      0.124234267 0.249207467 0.135881305 0.277614802 0.261451662
      0.149021372 0.142293975 0.0817763507 0.261451662 0.0613725632
      0.106511034 0.122238323 0.261451662 0.187127143 0.0978278741
      0.0769342035 0.0215618834 0.261451662 0.0211090222 0.0566690415
      0.107173696 0.167363063 0.261451662 0.150129974 0.19783777
      0.0583019443 0.261451662 0.056984134 0.176109791 0.152192369
      0.261451662 0.239892751 0.0856491774 0.110684417 0.0144651178
      0.261451662 0.0182364136 0.112299114 0.134922817 0.214981377
      0.0895159468 0.0390388183 0.0346794128 0.00550775835 0.273520201
      0.00478841364 0.0578321479 0.0296268705 0.0817592815 0.25805974
      0.11364539 0.236782864 0.00479261344 0.220348224 0.0183489863
      0.273520201 0.0801945105 0.249754727 0.14010565 0.0356705748
      0.0504305512 0.00812569354 0.273520201 0.00845139846 0.0497419536
      0.0378058627 0.133258522 0.273520201 0.220513895 0.273520201
      0.0148844002 0.273520201 0.160794795 0.273520201 0.0617699921
      0.273520201 0.246510655 0.0809592828 0.228939831 0.0204290729
      0.0795608163 0.0266048815 0.212813944 0.0553348586 0.246510655
      0.167881548 0.0652804375 0.221818373 0.0467644893 0.144346371
      0.0347904563 0.0713884756 0.0535874069 0.173908442 0.246510655
      0.140989482 0.246510655 0.0284634754 0.246510655 0.213246509
      0.246510655 0.0467378348 0.246510655 0.237156495 0.041611556
      0.15930742 0.0251751356 0.246510655 0.131669238 0.134834349
      0.0625185072 0.246510655 0.0625928715 0.0384820141 0.0881122872
      0.0334752016 0.233458459 0.0152617283 0.0349988937 0.0274925027
      0.0638783798 0.280890018 0.138619944 0.124461576 0.0468625277
      0.280890018 0.0676982254 0.163547829 0.0590040162 0.280890018
      0.134741068 0.0303734448 0.0237410776 0.011472824 0.280890018
      0.0218877606 0.020229619 0.0306170527 0.151803002 0.280890018
      0.280890018 0.232584462 0.280890018 0.280890018 0.110083289
      0.164774507 0.0479387976 0.280890018 0.223969132 0.080674164
      0.10616231 0.0268321708 0.151579708 0.0664791316 0.138931081
      0.0434258245 0.223969132 0.223969132 0.0783140287 0.121512666
      0.0245820563 0.223969132 0.0884984285 0.209001794 0.0653381795
      0.223969132 0.223969132 0.214253083 0.218616351 0.170932725
      0.172851726 0.15155606 0.137690321 0.0313320309 0.223969132
      0.223969132 0.214188978 0.17550002 0.0780007988 0.223969132
      0.1764272 0.223969132 0.0535239913 0.198284134</_>
    <_>
      0.138765782 0.00874359906 0.0258755349 0.130706415 0.152476773
      0.0199334845 0.123730883 0.138921544 0.14477317 0.25125277
      0.0426159985 0.112626769 0.25125277 0.25125277 0.0681178048
      0.0691807792 0.102331713 0.25125277 0.183335051 0.0305169653
      0.0223418754 0.167899102 0.224088639 0.0857723653 0.190136448
      0.185804263 0.200904235 0.25125277 0.164357662 0.154754594
      0.25125277 0.25125277 0.195601836 0.0829876363 0.117534392
      0.25125277 0.243691817 0.021454135 0.0614808314 0.130899087
      0.267830789 0.0411350131 0.00709459512 0.0135939736 0.256866485
      0.247077972 0.00638338085 0.00591569813 0.0582844615 0.267830789
      0.0206518751 0.106611632 0.0830555782 0.236260325 0.267830789
      0.0996589214 0.168982327 0.141508043 0.267830789 0.0841846094
      0.00941118039 0.014508781 0.267830789 0.267830789 0.0178043507
      0.0317564756 0.0657242611 0.267830789 0.0390685946 0.204340875
      0.144687444 0.267830789 0.199936509 0.0263770502 0.0231741033
      0.123941265 0.187760875 0.101392753 0.130526692 0.113282904
      0.156344354 0.213063046 0.0867648423 0.0522421449 0.20656921
      0.217608169 0.172377482 0.0999675095 0.136188731 0.160562009
      0.217608169 0.0624341406 0.0687125549 0.121223785 0.217608169
      0.18735455 0.217231199 0.202443689 0.217608169 0.217608169
      0.135773122 0.177416816 0.201442897 0.217608169 0.217608169
      0.158184066 0.134612754 0.217608169 0.137769535 0.0783348233
      0.0404529609 0.184111729 0.24141939 0.167871296 0.0637477189
      0.101908974 0.156826079 0.157457024 0.0256186984 0.05042753
      0.137175396 0.24141939 0.0922673792 0.120125532 0.122237854
      0.176083505 0.188371778 0.0926669911 0.144790515 0.24141939
      0.24141939 0.173793852 0.212458193 0.079742305 0.208815351
      0.24141939 0.0479365848 0.0721303523 0.201809645 0.24141939
      0.103895023 0.24141939 0.195916161 0.24141939 0.167823821
      0.0861194208 0.144818589 0.144063726 0.195671931 0.0648508519
      0.0739018023 0.0566979535 0.166545764 0.17596443 0.100456953
      0.13367188 0.0964723006 0.249841496 0.0477739945 0.0309395753
      0.0328861736 0.214796588 0.249841496 0.181943744 0.218224406
      0.169611633 0.249841496 0.157837108 0.120558269 0.105117232
      0.249841496 0.249841496 0.197244301 0.249841496 0.0720823407
      0.249841496 0.121606775 0.0417201892 0.051118698 0.249841496
      0.150197595 0.0388839655 0.028109828 0.0425761342 0.268876344
      0.0346555971 0.0295568276 0.0223290361 0.199701101 0.268876344
      0.201502711 0.0748360679 0.0870152488 0.149689525 0.0599736497
      0.10317453 0.123225503 0.268876344 0.23366867 0.0535707697
      0.0935312361 0.0404161401 0.268876344 0.0349406637 0.0615491048
      0.0401922427 0.234312043 0.268876344 0.268876344 0.050244391
      0.0923546851 0.214016601 0.205885857 0.245855138 0.165666014
      0.268876344 0.255753696 0.13664864 0.064625524 0.0969770923
      0.105267651 0.0499949083 0.0829901472 0.132826969 0.255753696
      0.255753696 0.0684805438 0.0356471911 0.0899955407 0.255753696
      0.0265053269 0.0580937043 0.0666770786 0.248944834 0.255753696
      0.255753696 0.0798237994 0.0742548034 0.174122617 0.205017224
      0.155272484 0.155414045 0.255753696 0.255753696 0.135556012
      0.0941386074 0.0904429182 0.255753696 0.0787332878 0.0846619681
      0.0844981372 0.255753696 0.119210191 0.0348470286 0.00975737162
      0.0557494685 0.0784487054 0.0458986349 0.0426136889 0.0625919774
      0.116956659 0.256529063 0.087339066 0.0782037675 0.151756495
      0.256529063 0.124578141 0.0175471306 0.0685123876 0.256529063
      0.256529063 0.120751612 0.0508321002 0.100169711 0.204907238
      0.123851903 0.185444951 0.183908373 0.256529063 0.256529063
      0.103133693 0.177972391 0.238950163 0.256529063 0.166907951
      0.16921708 0.242371142 0.256529063 0.262056857 0.0384883359
      0.0824721605 0.0655183047 0.291475356 0.0500479974 0.00175142509
      0.011200211 0.271790743 0.194958776 0.00564783579 0.0150069902
      0.020951746 0.291475356 0.0185351372 0.0425847806 0.0305824038
      0.203468457 0.291475356 0.0196364652 0.116017565 0.101846337
      0.291475356 0.0687938482 0.0387204885 0.0438403301 0.291475356
      0.291475356 0.00306225684 0.0330833793 0.0812791735 0.291475356
      0.0534935407 0.128529221 0.130425557 0.291475356 0.16518572
      0.030301258 0.0294787306 0.053334143 0.113819122 0.0677880049
      0.0522914007 0.060794387 0.14364104 0.239666387 0.0859246403
      0.0889284909 0.111728147 0.163626254 0.158534139 0.0527019501
      0.0500294752 0.239666387 0.239666387 0.0597091876 0.157853484
      0.235193953 0.239666387 0.119709872 0.162051842 0.168216676
      0.239666387 0.239666387 0.124748141 0.232577577 0.239666387
      0.239666387 0.225110203 0.0752725676 0.201171562 0.239666387
      0.231304303 0.0532289483 0.0695882067 0.122057013 0.23545973
      0.141903073 0.106113777 0.0259045735 0.245704532 0.173883617
      0.0231252946 0.0186556242 0.0831468254 0.207941264 0.0641222447
      0.115887783 0.0541523993 0.151409864 0.245704532 0.0529603548
      0.0812846124 0.217851132 0.245704532 0.245704532 0.0522106178
      0.119751364 0.245704532 0.245704532 0.0922586918 0.0526397154
      0.245704532 0.245704532 0.173928082 0.186138287 0.125836343
      0.245704532 0.194803655 0.0532835051 0.049638316 0.0847122893
      0.132879779 0.0818246156 0.0418770425 0.0479274765 0.198191673
      0.250019044 0.0522292107 0.10327214 0.058390636 0.250019044
      0.0763200447 0.0244224425 0.0408984832 0.250019044 0.250019044
      0.128564283 0.081720911 0.250019044 0.250019044 0.165081441
      0.179156542 0.151550978 0.250019044 0.250019044 0.080741331
      0.0978742689 0.158142909 0.250019044 0.168645784 0.146608964
      0.181195989 0.250019044 0.186580941 0.0159235112 0.0475756526
      0.0197033454 0.260016054 0.0282376297 0.0283200555 0.02320843
      0.172333613 0.259180009 0.0736883059 0.00604548492 0.095872663
      0.141822219 0.113519408 0.1120653 0.0607133061 0.217417821
      0.196596891 0.0212837607 0.07220909 0.0484385714 0.260016054
      0.120245904 0.161044583 0.0963711217 0.260016054 0.260016054
      0.0826294348 0.0839640722 0.260016054 0.260016054 0.260016054
      0.260016054 0.1755016 0.260016054 0.242089897 0.0696148276
      0.0265603997 0.100022584 0.153173178 0.111350439 0.0982782468
      0.0514126047 0.241496563 0.242089897 0.0464330167 0.0499305762
      0.0864792764 0.242089897 0.0473625511 0.065239355 0.0404486991
      0.238298148 0.242089897 0.0780921578 0.0810272917 0.192921221
      0.242089897 0.242089897 0.242089897 0.111161985 0.242089897
      0.242089897 0.0473368838 0.0495250225 0.132512152 0.242089897
      0.154409796 0.198191777 0.0787038505 0.242089897 0.249605566
      0.0613503419 0.0405821539 0.0599089414 0.137312621 0.134198517
      0.192444071 0.103221104 0.249605566 0.249605566 0.0773630515
      0.193985417 0.145880863 0.249605566 0.207761928 0.186448187
      0.104095899 0.249605566 0.195668787 0.0677701384 0.111281916
      0.0630640909 0.249605566 0.184297383 0.0402534269 0.0137565788
      0.213162094 0.249605566 0.0342361853 0.0645556524 0.097910881
      0.22862719 0.196726322 0.0700013489 0.02484864 0.249605566
      0.27371344 0.0476174392 0.18058978 0.0608035401 0.27371344
      0.0896423906 0.0520370416 0.0242557283 0.27371344 0.27371344
      0.00725854654 0.052742932 0.0637492165 0.27371344 0.0539491549
      0.127856642 0.143546253 0.27371344 0.27371344 0.0272081848
      0.0587422214 0.036823947 0.27371344 0.0631714538 0.0177664738
      0.00719092181 0.27371344 0.257285029 0.00822774414 0.0231624059
      0.0722697377 0.27371344 0.0361170061 0.00521239033 0.0219477247
      0.260120004 0.20428285 0.0478184298 0.126538336 0.145614818
      0.223639861 0.112534523 0.134658962 0.148281485 0.227826566
      0.234809995 0.103056349 0.220345616 0.204988137 0.234809995
      0.148971632 0.0827692971 0.234809995 0.234809995 0.194161847
      0.0151628582 0.0221066829 0.130755156 0.193869397 0.0855653882
      0.016749911 0.0443811081 0.205971718 0.234809995 0.0270497669
      0.0580644198 0.202233046 0.234809995 0.170244083 0.0823353156
      0.140248969 0.234809995 0.247313067 0.0636583716 0.122457027
      0.171783686 0.247313067 0.146450698 0.044535391 0.148621723
      0.247313067 0.246622235 0.0862579644 0.0479859821 0.163513318
      0.247313067 0.144521162 0.154414952 0.10035377 0.236176789
      0.247313067 0.0241008028 0.0751472786 0.143464983 0.247313067
      0.166758403 0.0530743077 0.104081519 0.247313067 0.230992511
      0.0373439379 0.0303851962 0.100464359 0.247313067 0.0922743008
      0.0484699309 0.013912959 0.247313067 0.229595587 0.166447625
      0.100666322 0.181636348 0.229595587 0.156114399 0.158935502
      0.111441337 0.229595587 0.229595587 0.126372382 0.182493731
      0.0999020413 0.229595587 0.155550092 0.121118724 0.141151398
      0.229595587 0.203275427 0.0736200586 0.0604359694 0.167065471
      0.211527511 0.0715761036 0.0979472622 0.0863521546 0.209148198
      0.229595587 0.0761166662 0.111621305 0.153236419 0.229595587
      0.0781543255 0.0893296078 0.166029677 0.229595587 0.149894163
      0.0243298505 0.151964098 0.0336950943 0.246949598 0.0969161317
      0.116984189 0.0727676228 0.199270174 0.235133737 0.0593580194
      0.0714644045 0.130107656 0.242068008 0.246949598 0.16324079
      0.0864279643 0.246949598 0.178992867 0.0654019043 0.106271535
      0.0615379922 0.246949598 0.0969253406 0.0400743 0.102509223
      0.246949598 0.246949598 0.161009595 0.246949598 0.160151079
      0.246949598 0.123196319 0.0423950143 0.135247216 0.246949598
      0.202209353 0.0868116319 0.0745848045 0.0975116268 0.180940986
      0.234755397 0.152609929 0.0727279335 0.234755397 0.218151867
      0.0436380357 0.0562077649 0.0822623968 0.234755397 0.173343837
      0.140944362 0.0623042919 0.234755397 0.234755397 0.211490214
      0.234755397 0.135645941 0.195129827 0.13120766 0.108318232
      0.151857898 0.234755397 0.20664607 0.136916682 0.110206112
      0.0645612255 0.234755397 0.112522669 0.125881732 0.0644136518
      0.234755397 0.182600975 0.0427423567 0.0864418298 0.1455957
      0.254262567 0.190152347 0.108648121 0.03461916 0.190477446
      0.254262567 0.0536931977 0.0298323985 0.231380731 0.254262567
      0.210331783 0.0839107856 0.0301833451 0.254262567 0.215589091
      0.00908967666 0.0196253993 0.157764629 0.254262567 0.096271269
      0.142501801 0.04251232 0.208238423 0.254262567 0.1100647
      0.0585153326 0.214334473 0.254262567 0.103013054 0.0473380908
      0.023820309 0.254262567 0.274326533 0.0517532714 0.0100744599
      0.096521847 0.274326533 0.0638839006 0.0232232753 0.00811085105
      0.274326533 0.274326533 0.0229700785 0.0380938575 0.132885665
      0.274326533 0.0940889567 0.000637892401 0.0240991861 0.274326533
      0.274326533 0.138620466 0.0304239914 0.100317024 0.274326533
      0.032601174 0.0167550799 0.0596029721 0.274326533 0.274326533
      0.043823313 0.0238590185 0.0550700016 0.274326533 0.0723999068
      0.00394128822 0.0496345498 0.274326533 0.245034799 0.03505335
      0.0621932857 0.20709984 0.245871231 0.175081745 0.00507337879
      0.0511925146 0.245871231 0.245871231 0.0471802764 0.100971684
      0.230600089 0.245871231 0.245871231 0.065139696 0.0773265287
      0.245871231 0.181568816 0.03318993 0.0450385772 0.10257224
      0.208439514 0.127090141 0.0102128005 0.026437737 0.198763549
      0.245871231 0.0716692209 0.118194327 0.154710621 0.245871231
      0.208574444 0.0374739505 0.0429262482 0.245871231 0.229110345
      0.0321916528 0.0858514756 0.145442039 0.270712852 0.193687901
      0.0656801164 0.0504780114 0.255819619 0.270712852 0.0270085726
      0.0643854737 0.136516288 0.270712852 0.144214883 0.0885013044
      0.0150845377 0.270712852 0.270712852 0.0589025281 0.0932119638
      0.108794928 0.270712852 0.148517326 0.0476550981 0.0170214679
      0.261732399 0.234433532 0.0166691262 0.0492705069 0.0615566969
      0.270712852 0.106728889 0.0517953821 0.0208791755 0.216736883
      0.224449456 0.0995437056 0.127635419 0.190192401 0.263960809
      0.16105473 0.152515218 0.0870392025 0.203346789 0.178049996
      0.126890674 0.11839018 0.145307377 0.263960809 0.146107525
      0.129478201 0.153134406 0.171944723 0.236655205 0.0870594755
      0.100702979 0.0715875551 0.239702657 0.161811069 0.0783805102
      0.0444021486 0.192619339 0.263960809 0.11748933 0.109275453
      0.0573012307 0.263960809 0.175002784 0.0945473239 0.0625555217
      0.231321275 0.147739843 0.0841495767 0.076195918 0.0524974912
      0.261435747 0.138241082 0.0588214882 0.0930781811 0.190020263
      0.261435747 0.216854677 0.261435747 0.151183531 0.261435747
      0.204344034 0.0808402374 0.192308769 0.261435747 0.231655747
      0.0474680103 0.0456995741 0.0228084531 0.261435747 0.109032393
      0.0484969579 0.0501407646 0.178041846 0.225579515 0.114247367
      0.0909825042 0.0550555475 0.218189776 0.116714649 0.0419381484
      0.118674532 0.260823011 0.235838249 0.235838249 0.235838249
      0.135891005 0.235838249 0.168127418 0.152014256 0.210168779
      0.235838249 0.216610178 0.151533201 0.127804592 0.0591402091
      0.235838249 0.115579098 0.119714141 0.0685363635 0.235293686
      0.235838249 0.127843007 0.101266585 0.0662467554 0.154030547
      0.107423142 0.0685753301 0.132673591 0.235838249 0.235838249
      0.0641816035 0.0541965738 0.0398565196 0.235838249 0.0787009075
      0.0470577367 0.0510123409 0.204344541 0.194555402 0.0656090081
      0.0614352487 0.104708545 0.184183091 0.0418654233 0.0852816254
      0.0479595736 0.151555523 0.24975352 0.158025429 0.164674088
      0.175835893 0.24975352 0.0683221593 0.0700377822 0.0768083856
      0.24975352 0.235756785 0.0741437003 0.0640439317 0.124169432
      0.235758409 0.0895181894 0.120160997 0.0967878625 0.205801651
      0.24975352 0.125967607 0.117241979 0.224513233 0.24975352
      0.144084692 0.221872896 0.198210061 0.24975352 0.280253947
      0.126353249 0.080290094 0.0762282237 0.280253947 0.0348670706
      0.0283605885 0.0786871612 0.266253382 0.243769765 0.0700392425
      0.0121914344 0.0392801501 0.280253947 0.0331939831 0.0197316296
      0.0598846823 0.204778343 0.280253947 0.0886343122 0.0642287061
      0.0903078467 0.280253947 0.0762451366 0.110363796 0.110128619
      0.280253947 0.280253947 0.0736824498 0.022537414 0.0590440333
      0.280253947 0.0665400997 0.0367570296 0.067090176 0.280253947
      0.159026101 0.0946414545 0.0519638583 0.124314785 0.155039847
      0.0771782994 0.094182618 0.0724155083 0.13650541 0.219738364
      0.0954430774 0.116093867 0.189430401 0.219738364 0.172798067
      0.185677871 0.0966729745 0.219738364 0.20350264 0.164580211
      0.0751262754 0.128879532 0.219738364 0.182634279 0.170813546
      0.114974551 0.197902709 0.219738364 0.189103797 0.171957299
      0.200440735 0.219738364 0.219738364 0.219738364 0.0952821672
      0.209698603 0.219973028 0.0439984091 0.070354037 0.129434988
      0.242541432 0.157390863 0.112669475 0.0406630188 0.20679161
      0.234944448 0.0816639438 0.0619660057 0.157341525 0.242541432
      0.103819467 0.10006462 0.116255909 0.178566024 0.174120679
      0.0747382715 0.121454157 0.168372989 0.242541432 0.217824608
      0.170968354 0.0364528373 0.159799829 0.242541432 0.157319456
      0.0759076476 0.1802935 0.242541432 0.172760248 0.198307246
      0.17539601 0.217665762 0.228252709 0.124665841 0.0518413335
      0.136198103 0.137686983 0.126470849 0.107584633 0.142291382
      0.163377836 0.23215954 0.105083361 0.0470395684 0.073006615
      0.23215954 0.112118281 0.106489025 0.0940472856 0.20561479
      0.23215954 0.23215954 0.062250793 0.121440358 0.209280476
      0.23215954 0.161941752 0.196147531 0.22293368 0.23215954
      0.222141892 0.0962732658 0.0556646883 0.23215954 0.179281205
      0.11708311 0.0784145594 0.23215954 0.242996261 0.0415562317
      0.064222753 0.0372715741 0.242996261 0.0501372814 0.0505742878
      0.0386528708 0.180310503 0.242996261 0.156884685 0.0784197822
      0.145686805 0.209851414 0.0707033724 0.0854027495 0.166167036
      0.233760893 0.242996261 0.0773795247 0.101413839 0.053969752
      0.242996261 0.0559001751 0.0676844344 0.0350501016 0.20894587
      0.242996261 0.242996261 0.104477786 0.151196018 0.242996261
      0.184959278 0.179232642 0.239515394 0.242996261 0.24981378
      0.166562364 0.0407635123 0.128753915 0.13577342 0.0657435507
      0.0380550809 0.193065986 0.24981378 0.24981378 0.0727945939
      0.0369407162 0.0417465344 0.24981378 0.0328408852 0.0234455373
      0.0882969722 0.225231826 0.24981378 0.24981378 0.0569763854
      0.106341816 0.205289572 0.20078674 0.0801090002 0.215752512
      0.24981378 0.24981378 0.168228641 0.0680721626 0.031198265
      0.24981378 0.0943351835 0.0237760991 0.0637114421 0.24981378
      0.100098386 0.0137252361 0.011087779 0.0394568108 0.0656423867
      0.0374135785 0.0391560197 0.0409003459 0.107129551 0.272698343
      0.0342841595 0.00710387714 0.113111705 0.168015853 0.074657172
      0.142781585 0.119489297 0.272698343 0.229196817 0.151476547
      0.196624652 0.131788671 0.272698343 0.142265722 0.0133842537
      0.0471463166 0.222114474 0.272698343 0.195649192 0.126734227
      0.272698343 0.272698343 0.226004317 0.0730512813 0.2184508
      0.272698343 0.278856367 0.0255129021 0.00365306647 0.0495339371
      0.278856367 0.0562591031 0.0753098875 0.0526838005 0.278856367
      0.232835963 0.0146240173 0.00505224289 0.0210845172 0.278856367
      0.036103949 0.0149539849 0.0208336115 0.241907716 0.278856367
      0.0579795465 0.0298237205 0.140421182 0.278856367 0.0651536807
      0.074267216 0.0827344283 0.278856367 0.278428942 0.105905324
      0.179428428 0.0391374342 0.278856367 0.0616468899 0.0189738628
      0.00763761066 0.278856367 0.130844921 0.0482263938 0.0188412629
      0.0402367897 0.126502395 0.0767556131 0.0620980375 0.0383513309
      0.135264426 0.235568449 0.0637815669 0.0633105338 0.110414393
      0.109194711 0.192890882 0.117960431 0.032049533 0.235568449
      0.235568449 0.235568449 0.235568449 0.140431657 0.235568449
      0.124108911 0.0425899252 0.138970211 0.235568449 0.235568449
      0.166640759 0.122645847 0.218402073 0.235568449 0.235568449
      0.183566675 0.235568449 0.235568449 0.236349374 0.0302282032
      0.0855549723 0.126778439 0.236349374 0.176551983 0.117965639
      0.015332628 0.236349374 0.156286627 0.0641377494 0.0276435185
      0.0564783998 0.197765321 0.0924213603 0.0977035463 0.0605093054
      0.157143414 0.236349374 0.0389099978 0.118237048 0.155273944
      0.236349374 0.236349374 0.21974504 0.0722983927 0.236349374
      0.236349374 0.124234855 0.236349374 0.16733788 0.236349374
      0.232799426 0.0568769537 0.0388050005 0.236349374 0.200307399
      0.127922311 0.0262075588 0.0396183096 0.105002984 0.124506287
      0.0601262338 0.0634916723 0.188674808 0.250295132 0.118088
      0.0698382407 0.0402469635 0.243330434 0.0996039212 0.0640643612
      0.0262185894 0.250295132 0.250295132 0.10353478 0.169232368
      0.240926087 0.250295132 0.228312388 0.0802821666 0.0420504697
      0.250295132 0.250295132 0.043930091 0.0473510996 0.203102037
      0.250295132 0.12387199 0.227417529 0.0566375293 0.250295132
      0.214059234 0.0357944183 0.0447342731 0.0272369459 0.217766955
      0.0254746191 0.0359880254 0.0133919977 0.185893357 0.205941528
      0.117130645 0.0283428133 0.0478207804 0.121183403 0.0977406502
      0.0698056147 0.0751123279 0.197789624 0.272923321 0.116702437
      0.0819478258 0.0881274566 0.272923321 0.0575550683 0.104618534
      0.0261447765 0.272923321 0.272923321 0.272923321 0.200893104
      0.272923321 0.272923321 0.191417247 0.106783748 0.0537407584
      0.272923321 0.231379777 0.155583411 0.0273612458 0.0374981388
      0.090369463 0.105571002 0.0379630923 0.0443498008 0.24227652
      0.261974663 0.10100989 0.0391971767 0.0202747621 0.261974663
      0.0579708219 0.0273418091 0.0121762957 0.261974663 0.261974663
      0.23758103 0.0939816535 0.250127405 0.261974663 0.112401754
      0.0763163045 0.0604112335 0.261974663 0.261974663 0.175935179
      0.0434809439 0.0898263156 0.261974663 0.0400852934 0.0878672525
      0.042358648 0.261974663 0.230586514 0.182730511 0.215015113
      0.0928034484 0.260518461 0.199242234 0.0185763799 0.0511208884
      0.256223202 0.260518461 0.260518461 0.155426338 0.23055394
      0.260518461 0.260518461 0.0637138486 0.213457316 0.260518461
      0.0834076628 0.0351036079 0.0313488878 0.0154734077 0.082555443
      0.0662846565 0.00704474002 0.0208143741 0.104216516 0.184793144
      0.11869064 0.0340982266 0.0367533341 0.171931326 0.157353356
      0.0338255912 0.0911346003 0.258933604 0.277251303 0.135369569
      0.0532752723 0.107936569 0.277251303 0.137403235 0.0618685111
      0.122320779 0.277251303 0.277251303 0.158435151 0.249313742
      0.0448322035 0.277251303 0.0961655527 0.0299677756 0.0449828357
      0.277251303 0.213680625 0.0666492656 0.0276307818 0.0272154436
      0.261401772 0.0819214657 0.0445873737 0.0977249667 0.243715987
      0.185063198 0.0307333488 0.062357448 0.0320115574 0.277251303
      0.0375714786 0.0326904953 0.0672535375 0.206245333 0.244816735
      0.244816735 0.244816735 0.101217717 0.244816735 0.218628824
      0.0423198938 0.0875289962 0.244816735 0.244816735 0.216956675
      0.217593953 0.172062546 0.244816735 0.244816735 0.147270814
      0.152912393 0.244816735 0.118794434 0.0732418597 0.0748459622
      0.0192384794 0.134635553 0.0893069208 0.00706329523 0.00951422099
      0.129944056 0.221975505 0.0606363863 0.105215684 0.0581828244
      0.16267173 0.177488819 0.018179616 0.0226955172 0.163567662
      0.259604186 0.0741139725 0.248007834 0.163123444 0.259604186
      0.259604186 0.167694524 0.052098684 0.177829236 0.259604186
      0.181800783 0.259604186 0.169811472 0.259604186 0.259604186
      0.0476761721 0.0658496991 0.259604186 0.225397557 0.0334302597
      0.162486047 0.0750753209 0.21763064 0.159400135 0.0303092618
      0.0139270667 0.112737022 0.128582507 0.0467014089 0.0710386708
      0.034281496 0.118338197 0.114976026 0.0152149489 0.0233602487
      0.100970626 0.273719698 0.143655822 0.183478504 0.189743757
      0.273719698 0.273719698 0.0524349101 0.0458787419 0.273719698
      0.273719698 0.0594192035 0.0645597577 0.157144636 0.273719698
      0.188316628 0.119108267 0.0239020381 0.273719698 0.191300169
      0.0457100309 0.0437626801 0.0277658775 0.102281317 0.148710951
      0.0105374577 0.0113312704 0.157561421 0.247621134 0.0234910939
      0.0334773846 0.0378526039 0.273719698 0.112173237 0.013698264
      0.000902195578 0.209539071 0.279147118 0.129329324 0.0918420702
      0.0976517498 0.279147118 0.0684605464 0.0627481043 0.010253462
      0.279147118 0.279147118 0.279147118 0.203418612 0.251364827
      0.279147118 0.279147118 0.118843004 0.0631335452 0.279147118
      0.177879095 0.0273167286 0.0171486065 0.0331244841 0.242565215
      0.0318822041 0.0113824345 0.00068535743 0.12885581 0.170507729
      0.0596468896 0.0316302776 0.0614755154 0.120468207 0.108570553
      0.0238777325 0.0112971663 0.18152523 0.274258554 0.23416698
      0.0934273303 0.274258554 0.274258554 0.229023933 0.06599655
      0.0653218552 0.274258554 0.274258554 0.160686657 0.0363610797
      0.103158601 0.274258554 0.10066063 0.0347415879 0.022287054
      0.274258554 0.174765527 0.0764827654 0.0211348366 0.0724333376
      0.144345954 0.129547268 0.0108262859 0.0091001112 0.19085741
      0.236008257 0.0556834005 0.00952222757 0.0270612426 0.274258554
      0.0784895793 0.000418607728 0.00091953075 0.197848454</_>
    <_>
      0.000120049466 0.0120744407 0.0539088286 0.032980971 0.0657494143
      0.000847291609 0.0125369318 0.000781207986 0.000120049466
      0.244497687 0.234999686 0.295554489 0.185215235 0.260552555
      0.00274041761 0.0565432832 0.00628925161 0.212686196 8.3849307e-05
      0.0120664304 0.0687736571 0.0353729613 0.191038683 0.0188011173
      0.0902911946 0.0202450957 0.000139742275 0.295554489 0.150262743
      0.295554489 0.247443631 0.295554489 0.0752322152 0.295554489
      0.240061209 0.295554489 0.277952403 0.175872236 0.234538123
      0.0493191592 0.0582091473 0.000455612375 0.0428584442 0.0328091867
      0.277952403 0.277952403 0.078852199 0.0630923137 0.00638603466
      0.0498907603 0.0191950612 0.214927778 0.153913319 0.277952403
      0.277952403 0.0975752622 0.156938717 0.0776645765 0.166063353
      0.0140199671 0.179988503 0.117655985 0.277952403 0.277952403
      0.125606433 0.195281029 0.0326568075 0.117776975 0.0269650649
      0.107878134 0.0781002194 0.277952403 0.149523064 0.0376996249
      0.119177252 0.0243046321 0.277161926 0.0454876237 0.211891085
      0.131701425 0.204329818 0.0981692225 0.0360025056 0.107487991
      0.0340428054 0.277161926 0.0294420402 0.114420868 0.0588474423
      0.0713020712 0.277161926 0.11768648 0.254297793 0.0697664097
      0.277161926 0.0661578551 0.265437692 0.123697333 0.277161926
      0.200757191 0.0745178014 0.104261599 0.0487246253 0.277161926
      0.0456075072 0.277161926 0.116099298 0.143290773 0.0367247202
      0.0419716239 0.153017759 0.0173399262 0.309711158 0.0110457093
      0.024059942 0.0106889242 0.0502978191 0.134498373 0.128554851
      0.309711158 0.0354421698 0.309711158 0.0807598904 0.0245117284
      0.0158531256 0.195173502 0.0494617671 0.0353337936 0.119557634
      0.0203426275 0.309711158 0.0309729688 0.223024875 0.0989308283
      0.0550782494 0.102767527 0.0745714754 0.267246872 0.0448610447
      0.309711158 0.172963306 0.309711158 0.282229543 0.169767678
      0.18814148 0.0587157384 0.1579016 0.0165794808 0.157460302
      0.0442158654 0.14220719 0.0806443542 0.25457266 0.145541787
      0.00763369584 0.0404688716 0.0150349438 0.25457266 0.0521619096
      0.25457266 0.186181799 0.19042182 0.248770207 0.0534343049
      0.109049283 0.0209769551 0.25457266 0.0884775743 0.217755631
      0.170294344 0.25457266 0.25457266 0.0438177288 0.119766638
      0.0366525799 0.25457266 0.113010615 0.23827602 0.12746343
      0.25457266 0.154553682 0.0116529856 0.0762267709 0.0366175249
      0.355107874 0.11891932 0.184396282 0.15847671 0.193394393
      0.0630686432 0.00275928387 0.0165304113 0.0126760639 0.349689633
      0.0312587991 0.000585991249 0.0413609147 0.0793896466 0.265467465
      0.0253701285 0.120295987 0.0798689201 0.355107874 0.246241018
      0.144286901 0.162187964 0.338588297 0.0819092542 0.00186452514
      0.0118435202 0.0233815275 0.355107874 0.0571348891 0.000223016148
      0.051427085 0.113774069 0. 0. 0. 0. 0.67261529 0. 0. 0. 0. 0. 0.
      0. 0. 0. 0. 0. 0. 0. 0. 0. 0. 0. 0.734433651 0. 0. 0. 0. 0. 0. 0.
      0. 0. 0. 0. 0. 0. 0.000304661022 0.00225106301 0.0194318052
      0.00666858582 0.131196335 0.0304443575 0.0917731151 0.0362691209
      0.000478120317 0.321779251 0.028250318 0.0892675593 0.0724914148
      0.321779251 0.126212656 0.321779251 0.321779251 0.321779251
      0.000993955764 0.0137848677 0.0522816926 0.000543382543
      0.0238719266 0.00176891685 0.00181041053 0.00437887944
      0.000640853774 0.321779251 0.321779251 0.321779251 0.00454902695
      0.1087908 0.00872660521 0.13071464 0.155505687 0.231241271
      0.244870231 0.0507428311 0.0465514399 0.0172347613 0.0755580738
      0.0151227787 0.236128762 0.222602427 0.244870231 0.244870231
      0.223756567 0.244870231 0.0178202111 0.0655477494 0.00506283483
      0.0564867891 0.0617345646 0.244870231 0.244870231 0.15581733
      0.244870231 0.00315087987 0.114331104 0.00258001545 0.121357776
      0.109323889 0.235232368 0.244870231 0.128698468 0.166349262
      0.00230249623 0.192536667 0.00892519299 0.244870231 0.13846685
      0.244870231 0.261273056 0.152766824 0.254581809 0.0422417335
      0.261273056 0.023314815 0.108314976 0.0587419271 0.225873396
      0.17439492 0.0382482484 0.0527442619 0.021548057 0.261273056
      0.0244134646 0.157569766 0.082333222 0.166148826 0.205273747
      0.0587454215 0.0677965879 0.0599337406 0.261273056 0.027844552
      0.261273056 0.157525882 0.230043292 0.251396835 0.0414939821
      0.0415833443 0.0808144137 0.261273056 0.0277453158 0.190057039
      0.159916595 0.261273056 0.0482187904 0.00484635169 0.00986060128
      0.00485297572 0.28260991 0.024207633 0.24089101 0.11865662
      0.0540156811 0.181557894 0.0350788459 0.0455076359 0.00882464461
      0.28260991 0.101041451 0.28260991 0.28260991 0.264951885
      0.189937204 0.0465635136 0.126697764 0.0222255271 0.28260991
      0.0144663686 0.0605506115 0.0440507308 0.204219103 0.28260991
      0.0978890434 0.28260991 0.0430378281 0.169941351 0.0161462165
      0.101028405 0.101500586 0.28260991 0.279097408 0.0950622782
      0.0764217451 0.00452224491 0.121451899 0.03986644 0.210702032
      0.208908975 0.279097408 0.279097408 0.0748068616 0.103823207
      0.0152937239 0.279097408 0.0470196791 0.0142140836 0.0307535697
      0.279097408 0.279097408 0.0708400384 0.11566288 0.0291729029
      0.0664734468 0.00638000667 0.12445569 0.108625859 0.279097408
      0.279097408 0.0416614711 0.0212767571 0.0265802164 0.279097408
      0.0231673419 0.142410114 0.0656185076 0.279097408 0.321133673
      0.0189195648 0.0651762486 0.0344206914 0.321133673 0.118477263
      0.0105471816 0.0321031921 0.321133673 0.116906054 0.00114232593
      0.00215844344 0.0111605423 0.321133673 0.0275877342 0.000119812845
      0.0127388686 0.12289352 0.321133673 0.0277781729 0.00237222365
      0.12324623 0.321133673 0.0467812642 0.0545451902 0.0181392692
      0.292675376 0.267580777 0.0134336986 0.00084353995 0.0988475904
      0.321133673 0.0304561891 0.00194595393 0.00219441182 0.185753047
      0.00130686187 0. 0. 0. 0.0566202924 0. 0. 0. 0.00130686187 0. 0.
      0. 0. 0. 0. 0. 0. 0. 0.558717489 0.0111372527 0. 0.181994185
      0.558717489 0.138783932 0.0313939527 0.0349749997 0.558717489 0.
      0. 0. 0. 0. 0. 0. 0. 0. 0.000471219129 0.024764251 0.0946620107
      0.00942943618 0.153065756 0.00318826502 0.0312319398 0.00892038085
      0.000227718861 0.142269671 0.326077461 0.333045721 0.0424537957
      0.333045721 0.0330690965 0.17768316 0.0646202192 0.0725157335
      0.00170426664 0.0137790972 0.0516252406 0.0113574015 0.211769521
      0.015319624 0.102962673 0.0313925147 0.00296024093 0.107486285
      0.101748168 0.333045721 0.0562891364 0.333045721 0.143215612
      0.333045721 0.333045721 0.145878479 0.121400706 0.152160868
      0.282204926 0.0145170046 0.282204926 0.0120241987 0.0886492953
      0.0475609377 0.0934269056 0.134129316 0.0544020459 0.12769559
      0.00927241985 0.282204926 0.0370671265 0.282204926 0.120434113
      0.149491861 0.18434906 0.0307339486 0.0876310095 0.0289769452
      0.282204926 0.0415800028 0.242631972 0.154422238 0.203582585
      0.236064985 0.100940153 0.282204926 0.0304359589 0.282204926
      0.0340008214 0.0831460431 0.0339693278 0.248261705 0.0920041054
      0.0417172387 0.0657526478 0.0363680534 0.329254419 0.0603757128
      0.231123626 0.116064504 0.107643433 0.218970284 0.0564914495
      0.0500145853 0.0503863283 0.329254419 0.0448172837 0.127592385
      0.0989273563 0.243660018 0.0976103693 0.134602278 0.271446913
      0.0265819076 0.329254419 0.118424676 0.142295986 0.0378037952
      0.0982253477 0.220166281 0.103265166 0.0888696685 0.0325757973
      0.329254419 0.162737742 0.140041918 0.033814989 0.242402226
      0.184450239 0.0464392714 0.114971645 0.0242840108 0.334153205
      0.0190328807 0.0366139784 0.0223598219 0.197004989 0.236887515
      0.0696956739 0.225820258 0.0405925438 0.334153205 0.0151796816
      0.0583889075 0.0381982699 0.277923912 0.165417328 0.0275511164
      0.0374342948 0.0233344045 0.334153205 0.0526082851 0.146751836
      0.0643964037 0.187262684 0.153174043 0.021094339 0.0624792464
      0.0273021944 0.334153205 0.0256141331 0.274584085 0.157004312
      0.200564742 0.272796392 0.0493702106 0.075952515 0.0504137501
      0.272796392 0.0142681841 0.0955324173 0.0550511703 0.272796392
      0.272796392 0.0351308621 0.0304788034 0.0479389131 0.272796392
      0.030028617 0.140125304 0.0415765867 0.268961906 0.221907437
      0.0626904517 0.114580497 0.0545380935 0.272796392 0.0426285081
      0.127597958 0.0759218037 0.243420839 0.252354264 0.101799332
      0.272796392 0.0730513707 0.272796392 0.0314766392 0.0625941008
      0.0118693439 0.207197547 0.233942315 0.0166751351 0.036585819
      0.0665231422 0.335227817 0.0371409766 0.0648305342 0.0146101471
      0.151483223 0.139558136 0.0208656024 0.0624368116 0.0582905114
      0.335227817 0.034421999 0.0526865721 0.0170112029 0.12814711
      0.190701991 0.0476091243 0.23541835 0.0476049408 0.335227817
      0.0275726039 0.124336675 0.0370048806 0.189085186 0.131060749
      0.0652081743 0.335227817 0.0281787571 0.335227817 0.0273911972
      0.300967187 0.0926229358 0.159908056 0.105781548 0.0321720801
      0.117506094 0.0511698686 0.442204952 0.0390207879 0.115920328
      0.0346338376 0.20648782 0. 0. 0. 0. 0. 0. 0. 0. 0. 0.15590848
      0.133641437 0.442204952 0.042252373 0.442204952 0.0303495005
      0.442204952 0.175229609 0.224443614 0. 0. 0. 0. 0. 0. 0. 0. 0.
      0.0032265638 0. 0. 0.00231586467 0.0617070347 0.010877802
      0.058180701 0.0185799003 0.00506813126 0.260042071 0.00992167927
      0.0264423266 0.0165759418 0.247468054 0.0947791189 0.329171389
      0.329171389 0.31485036 0.00625979761 0.0232168697 0.0871277228
      0.00990621001 0.0847768337 0.00509704929 0. 0. 0.00196138537
      0.329171389 0.329171389 0.329171389 0.0837450996 0.325514495
      0.0232887026 0.0203561857 0.00862191617 0.282324791 0.257377952
      0.005749573 0.0150207542 0.0109128822 0.147581667 0.0174720343
      0.179206759 0.117753968 0.257377952 0.257377952 0.0791062564
      0.246585563 0.0137100052 0.232966647 0.00470943656 0.0276346095
      0.0161296204 0.257377952 0.257377952 0.138812765 0.257377952
      0.0141736167 0.212484792 0.00552922487 0.0137480199 0.00582582224
      0.257377952 0.257377952 0.0159907639 0.0325279087 0.00746759446
      0.257377952 0.0120958816 0.257377952 0.106523797 0.257377952
      0.118729174 0.0922924429 0.178419054 0.0132830702 0.295271009
      0.0751579106 0.145090878 0.0104470486 0.121425837 0.192872182
      0.0674095303 0.063349776 0.023512233 0.323649585 0.148464069
      0.201791033 0.0145075526 0.205661058 0.142845526 0.036631152
      0.0891761929 0.0275526773 0.315028101 0.0260112882 0.240110144
      0.0628925487 0.186043933 0.289097309 0.0456300303 0.148122743
      0.0543143488 0.323649585 0.0435482115 0.0915285274 0.0125053599
      0.323649585 0.134756207 0.0157279857 0.0118867746 0.0168728195
      0.320220917 0.0623285845 0.140881658 0.061043188 0.151098758
      0.197803423 0.00753900502 0.0184184164 0.00736071588 0.249441028
      0.0116766412 0.209980056 0.14775306 0.238253787 0.239908457
      0.0768700838 0.169557273 0.0442300476 0.320220917 0.0287055653
      0.0147369532 0.00475124223 0.240285233 0.288911551 0.174177185
      0.278462887 0.0190836024 0.320220917 0.011684888 0.0205056854
      0.00792170782 0.223892733 0.25679189 0.0454061516 0.107589737
      0.0198806226 0.213930756 0.0213130489 0.0918843448 0.0680350661
      0.25679189 0.25679189 0.0903579444 0.25679189 0.0337583609
      0.25679189 0.0217116661 0.0164619312 0.0130789783 0.242015749
      0.25679189 0.0782358795 0.117801517 0.0301833805 0.25679189
      0.0250457078 0.136098847 0.0581544153 0.25679189 0.24144493
      0.0300862882 0.0915932059 0.0287585296 0.25679189 0.0418752544
      0.25679189 0.127847716 0.25679189 0.17928423 0.0439658351
      0.181073323 0.019043399 0.324368328 0.0221155304 0.0728609934
      0.0343207084 0.207899511 0.148080215 0.062031839 0.236923888
      0.00949437916 0.324368328 0.0186369773 0.21807006 0.0813159272
      0.20599778 0.165472627 0.0929886177 0.161440715 0.0336803161
      0.324368328 0.0744177103 0.127868742 0.0729827806 0.194296926
      0.144482523 0.13011913 0.170005679 0.0332969315 0.324368328
      0.12914148 0.160615608 0.110127114 0.170048177 0.153863549
      0.0932317972 0.373856872 0.00460673263 0.410883963 0.0126761086
      0.399668962 0.133866876 0.225110441 0. 0. 0. 0. 0. 0. 0. 0. 0.
      0.128656119 0.123291068 0.201636285 0.0267122798 0.410883963
      0.18563661 0.297743976 0.183946773 0.165904135 0. 0. 0. 0. 0. 0.
      0. 0. 0. 0.00226277695 0.0246126689 0.0972656906 0.00858305115
      0.193761066 0.0152569721 0.0599316545 0.0104975374 0.000616966689
      0.103099965 0.309983581 0.340713978 0.0770622268 0.340713978
      0.0650308803 0.340713978 0.0932659134 0.0883459076 0.000227076322
      0.00709874369 0.0298842844 0.00181264372 0.143543556 0.0132103274
      0.112151131 0.0184265431 0.000227076322 0.0781749785 0.0510636196
      0.191040605 0.0163437612 0.340713978 0.0545758754 0.340713978
      0.310879439 0.226717949 0.150278807 0.115617834 0.233744547
      0.0198306032 0.28738457 0.0152211636 0.101109527 0.0307788122
      0.156096697 0.185559928 0.0346932001 0.0905719548 0.0321653485
      0.28738457 0.0203020126 0.273157775 0.0868484229 0.196156442
      0.109382689 0.0423508249 0.122323222 0.00422504917 0.28738457
      0.0100441296 0.28738457 0.162382498 0.186549261 0.194042295
      0.145709753 0.28738457 0.0379878618 0.28738457 0.0074940538
      0.152850091 0.0660785064 0.175491109 0.0745335221 0.0535270199
      0.141945153 0.0686939657 0.323829979 0.0460436754 0.248339236
      0.0660704747 0.123356223 0.219388232 0.0533975288 0.161152437
      0.0641043633 0.323829979 0.0609590895 0.0654786751 0.0142226461
      0.295465142 0.10912057 0.113660455 0.279591888 0.0948363841
      0.323829979 0.0512644537 0.130120426 0.0271652639 0.0948022455
      0.181867003 0.0814086124 0.184469238 0.0889035761 0.323829979
      0.0993909091 0.113247596 0.0232805032 0.194714695 0.188859314
      0.0638001114 0.16546607 0.0308822282 0.306005329 0.0290323459
      0.0361044481 0.0119207231 0.209713921 0.188055784 0.125628188
      0.242488161 0.0270750597 0.306005329 0.0300207529 0.0684908032
      0.0237476323 0.146740496 0.155873597 0.0439737514 0.140878066
      0.0231624432 0.306005329 0.0391585529 0.13838087 0.0430396609
      0.168676853 0.306005329 0.0484249815 0.0790506825 0.0182836447
      0.306005329 0.0514507219 0.272866368 0.0807075799 0.293071598
      0.218973517 0.0622782074 0.114546232 0.0384378955 0.285741568
      0.0527928472 0.0965109617 0.0587783232 0.201681018 0.176883742
      0.017982956 0.0766462609 0.0322553739 0.285741568 0.0581529215
      0.236205935 0.0959334821 0.226682305 0.285741568 0.0673310459
      0.110131778 0.0144172898 0.285741568 0.0589848198 0.0891390219
      0.0537928194 0.285741568 0.285741568 0.0560412146 0.156800047
      0.0290352795 0.285741568 0.0367910899 0.0262596644 0.0347735099
      0.285741568 0.142702714 0.0501420796 0.108722642 0.0347645916
      0.389297664 0.108881652 0.147291645 0.08541473 0.165728062
      0.103921711 0.0668122843 0.141360492 0.0319889411 0.389297664
      0.188965321 0.113515042 0.137730122 0.103563547 0.215093881
      0.0196769442 0.0791748688 0.019607665 0.389297664 0.0568199009
      0.0159915313 0.0188309103 0.233226106 0.151512891 0.0184721034
      0.0680323541 0.00333521888 0.389297664 0.0916955099 0.00981109124
      0.0448496714 0.145366415 0.134713873 0.073968254 0.273723334
      0.0376152918 0.519459188 0.313148588 0.223905101 0.262191862
      0.120403357 0. 0. 0. 0. 0. 0. 0. 0. 0. 0.204688564 0.0389085151
      0.142576292 0.00349928322 0.519459188 0.13719584 0.0200653356
      0.0956633016 0.177799448 0. 0. 0. 0. 0. 0. 0. 0. 0. 0.000452778739
      0.00499391789 0.00163987267 0.00192066398 0.0135483854
      0.00078340678 0.0340765417 0.0057063885 0.000452778739 0.160929486
      0.145592138 0.138324842 0.0126446532 0.0759678334 0.0172707103
      0.382686049 0.168260351 0.272065729 0.000516708766 0.0431997925
      0.110417768 0.0318574496 0.163033992 0.0114108482 0.0248367563
      0.00311136921 0.000516708766 0.197758093 0.382686049 0.382686049
      0.154136762 0.382686049 0.297236264 0.112109959 0.0154651618
      0.166579753 0.186513171 0.0884476304 0.122937649 0.00350964791
      0.0820089504 0.00542921247 0.187072009 0.101193674 0.244055882
      0.248127177 0.101538226 0.232286334 0.00642608292 0.162616596
      0.00321713416 0.114772253 0.097924985 0.248127177 0.248127177
      0.248127177 0.248127177 0.0282815248 0.248127177 0.0923525989
      0.0520921983 0.040447522 0.248127177 0.248127177 0.0737847835
      0.208680242 0.00371250138 0.248127177 0.0267011505 0.126985312
      0.139685422 0.248127177 0.169908762 0.0615575202 0.180323884
      0.0413920246 0.272951275 0.0259703342 0.105161063 0.0425756015
      0.17544651 0.187820196 0.0352679454 0.112869315 0.0591503829
      0.272951275 0.0520499684 0.120190211 0.0240786728 0.19202356
      0.245403901 0.0811535865 0.272951275 0.0093421163 0.272951275
      0.0502468124 0.218106627 0.137919322 0.272951275 0.147116005
      0.121894427 0.265475154 0.0129994797 0.272951275 0.0606928729
      0.201963022 0.10576836 0.181261376 0.116411239 0.0331395827
      0.10715545 0.0174382739 0.224868596 0.0196901951 0.106597871
      0.0304162521 0.111552477 0.304224163 0.114606954 0.127718255
      0.0064202128 0.106725723 0.0348054618 0.239176959 0.0778378993
      0.304224163 0.0507273935 0.120185785 0.304224163 0.0140442653
      0.304224163 0.0197478589 0.0538772047 0.017979065 0.0475081466
      0.245475486 0.304224163 0.304224163 0.0449636877 0.304224163
      0.0341424793 0.132049382 0.105573371 0.162791491 0.254354507
      0.0939158201 0.0921394974 0.00233371626 0.0388424173 0.0196359027
      0.100567929 0.0641126558 0.254354507 0.254354507 0.0497975163
      0.0871849209 0.0248512458 0.220119804 0.00605297973 0.0685598031
      0.0465980507 0.254354507 0.254354507 0.158854499 0.194773674
      0.0171270948 0.254354507 0.0283046234 0.226258993 0.165679529
      0.254354507 0.254354507 0.0446628146 0.0503691807 0.0669231787
      0.254354507 0.0371664315 0.254354507 0.181673348 0.254354507
      0.266166151 0.0229385458 0.041798871 0.0485975742 0.347099215
      0.0168641154 0.0258806217 0.0105193229 0.290197968 0.145754859
      0.0147163505 0.0349230804 0.0101968097 0.347099215 0.02192582 0.
      0.000606363988 0.148159936 0.277595401 0.0880146921 0.0412797555
      0.165850505 0.347099215 0.087044023 0.30118385 0.0804935098
      0.258149922 0.106298223 0.0370195135 0.000211151622 0.0410097688
      0.347099215 0.0265623238 0.00586600369 0.000507708464 0.0901516452
      0.475042254 0.193428859 0.475042254 0. 0.475042254 0.20734413 0.
      0. 0.475042254 0. 0. 0. 0. 0. 0. 0. 0. 0. 0. 0. 0. 0. 0.110400878
      0. 0. 0. 0. 0. 0. 0. 0. 0. 0. 0. 0. 0. 0.000441470213 0.0175459757
      0.0795605183 0.013187808 0.172485709 0.0404668972 0.0610358305
      0.0100506246 0.00676322263 0.0560107231 0.21868971 0.332240164
      0.0663342178 0.332240164 0.313225448 0.332240164 0.0952144265
      0.154138461 0.000650196918 0.000709454878 0.0114895273
      0.000329048547 0.0616396554 0.0369984396 0.0480117351
      0.00977172051 0.00877816509 0.0929618478 0.0136119649 0.212863773
      0.00865086727 0.332240164 0.235244498 0.332240164 0.210542947
      0.233949304 0.143204451 0.122140147 0.250682354 0.0191408675
      0.250682354 0.110972784 0.10044983 0.0736977458 0.186318159
      0.250682354 0.0910609886 0.250682354 0.00547089241 0.250682354
      0.0250957813 0.0818727463 0.063484095 0.250682354 0.178453535
      0.0475520305 0.160062477 0.00457822345 0.250682354 0.0740875974
      0.16764608 0.20971112 0.231204614 0.250682354 0.178797126
      0.250682354 0.00428032363 0.139012903 0.00995967723 0.0460554548
      0.102175549 0.243195191 0.213490233 0.157304555 0.312310487
      0.0158716235 0.312310487 0.0526800267 0.199582204 0.119445458
      0.211966172 0.111480072 0.143924668 0.190388367 0.0203743353
      0.312310487 0.0677536502 0.151876315 0.126879692 0.118917413
      0.210897788 0.14660351 0.277923971 0.0206425097 0.312310487
      0.0221786741 0.0421826281 0.053969495 0.137278736 0.108938739
      0.0445469879 0.0697806403 0.0307413936 0.312310487 0.0310156699
      0.0368713848 0.0638994202 0.123974517 0.022340836 0.0604058318
      0.146332338 0.0144090913 0.321105897 0.0224906635 0.145558104
      0.0523567982 0.0243134182 0.102098934 0.123950019 0.321105897
      0.0441747047 0.321105897 0.0329894498 0.321105897 0.133440673
      0.0951568484 0.0315173604 0.00397987897 0.00500190072
      0.00859401654 0.321105897 0.0120103657 0.170320883 0.0658138171
      0.0409790613 0.19939144 0.0289073419 0.10469272 0.012678857
      0.321105897 0.00871293433 0.321105897 0.196094617 0.20501329
      0.224275798 0.0750091895 0.202481017 0.0214762259 0.235464334
      0.0245574992 0.191816926 0.0797781125 0.224559903 0.235464334
      0.0845654979 0.224179 0.0474760048 0.235464334 0.0352267399
      0.225297257 0.0654317141 0.235464334 0.235464334 0.0936279818
      0.204891831 0.00826001726 0.175951079 0.00339759537 0.184864566
      0.0684907064 0.235464334 0.235464334 0.142528847 0.235464334
      0.0239424333 0.235464334 0.0117995013 0.0145778479 0.00267324364
      0.221903056 0.252576113 0.0969654918 0.172396824 0.106006011
      0.372382462 0.0913400799 0.204050198 0.044483874 0.221166939
      0.0823323503 0.0212009512 5.14881576e-05 0.0238684192 0.372382462
      0.0242094342 0.00730981911 0.000594945799 0.0667811707 0.279608428
      0.0703219622 0.186025321 0.0438510664 0.372382462 0.0287381094
      0.0139018912 0.00117701583 0.267692626 0.104222625 0.000245533854
      4.99113012e-05 0.0104613276 0.372382462 0.00622017542
      0.00251120701 0.000148848034 0.101628736 0. 0. 0. 0. 0.730702758
      0. 0. 0. 0. 0. 0. 0. 0. 0. 0. 0. 0. 0. 0. 0. 0. 0. 0.676816106 0.
      0. 0. 0. 0. 0. 0. 0. 0. 0. 0. 0. 0.</_>
    <_>
      0.00225000642 0.00152200041 0.00400390709 0.000652738556
      0.216846913 0.00102374447 0.00420232257 0.00161967508
      0.00221471395 0.326138437 0.224150673 0.219727501 0.0508002229
      0.352221489 0.0948774517 0.17806685 0.0509105287 0.352221489
      0.00484671863 0.000512697676 4.2174499e-05 0.000246898126
      0.125507846 0.00135207898 0.00924510974 0.00356328557
      0.00510370592 0.352221489 0.0485416651 0.0431917049 0.00763227604
      0.352221489 0.054539647 0.222893164 0.0741501525 0.352221489
      0.305233598 0.106940143 0.115659438 0.0289114956 0.258121759
      0.0514247492 0.0575671121 0.0137700522 0.306353182 0.306353182
      0.0797764584 0.130227149 0.0335968547 0.134080797 0.0250082836
      0.0502910912 0.000620464212 0.306353182 0.306353182 0.0333984718
      0.0512898117 0.00528950291 0.237659171 0.0254861116 0.058955878
      0.0177788138 0.306353182 0.306353182 0.028004786 0.0558133647
      0.005353224 0.17887111 0.00962262228 0.0450428724 0.00740768388
      0.306353182 0.281267971 0.0795050189 0.0985897034 0.0291937105
      0.242497802 0.0347606838 0.0599957667 0.0235595386 0.281267971
      0.176337078 0.122059636 0.113258898 0.0987294763 0.281267971
      0.160677776 0.0499256849 0.0424896255 0.159630075 0.281267971
      0.0536303371 0.0720025003 0.00996839162 0.248153076 0.0103966016
      0.0804419816 0.0321892314 0.281267971 0.281267971 0.119485885
      0.225033537 0.071922034 0.281267971 0.0777009875 0.0629274473
      0.040337842 0.281267971 0.125209495 0.153114185 0.10347122
      0.220890775 0.287314385 0.287314385 0.0723727271 0.0348709114
      0.123882622 0.0441418663 0.0387501828 0.0141802914 0.0744179934
      0.287314385 0.082673721 0.0293475762 0.00889188424 0.0458883792
      0.287314385 0.139658228 0.260355651 0.183457702 0.287314385
      0.233169809 0.104134984 0.0559262894 0.287314385 0.16138038
      0.0417585857 0.071364291 0.106994584 0.287314385 0.111699194
      0.0540576465 0.0210058149 0.174172863 0.0962412506 0.00569959218
      0.0217664298 0.00440120418 0.326941073 0.00463365577 0.0240163133
      0.00711288396 0.0980875194 0.326941073 0.00528370449 0.0171832405
      0.00744092464 0.326941073 0.00763584627 0.0193802807 0.00754388701
      0.326941073 0.234314486 0.0136317294 0.0464790128 0.0111345779
      0.326941073 0.0106452052 0.0530924909 0.0163066387 0.247448787
      0.326941073 0.0108410958 0.0354706533 0.00432394445 0.320128441
      0.00491231447 0.0412305109 0.0130303977 0.326941073 0.297684968
      0.00289912871 0.0228922088 0.0180536564 0.157241464 0.0109621575
      0.0277696829 0.00214517838 0.299773961 0.316574126 0.0226038415
      0.103252061 0.101353548 0.294499427 0.0965454429 0.107109271
      0.0182186887 0.316574126 0.316574126 0.00316129928 0.0176893603
      0.00897763949 0.0769494325 0.00381307909 0.00694924034
      0.00164466118 0.316574126 0.316574126 0.0342887528 0.125961512
      0.0709362403 0.161235124 0.0346103944 0.0657678694 0.0357464738
      0.316574126 0.209611282 0.0922471434 0.193807587 0.126284927
      0.2535882 0.14284803 0.158127904 0.0966614932 0.222931266
      0.107921511 0.10627611 0.190813139 0.100107595 0.2535882
      0.0886778459 0.130017802 0.120150894 0.0725707561 0.2535882
      0.111817956 0.2535882 0.106661633 0.2535882 0.0672836751
      0.10521999 0.0868888646 0.2535882 0.196478173 0.0990222767
      0.239704341 0.0822813734 0.2535882 0.0696429983 0.053253416
      0.121144384 0.202578023 0.00646475283 0.000556392188 0. 0.
      0.0773213506 0.000697316427 0.00751519157 0.00289653358
      0.00684007397 0.394302309 0.0303853117 0.0749540776 0.0102837151
      0.394302309 0.0106694279 0.112727873 0.0434480049 0.394302309
      0.10607677 0.00319606345 0.00672122883 0.000731444627 0.0621563978
      0.00132091751 0. 0.00200586114 0.0917449147 0.394302309
      0.0262725931 0.106441893 0.00502615608 0.394302309 0.00836093444
      0.0021546029 0.00340010202 0.394302309 0.230478242 0.0158513226
      0.0425841995 0.00602913136 0.31291455 0.00294990488 0.0107377125
      0.00490596611 0.231243044 0.31291455 0.0138247581 0.0362318456
      0.0120325349 0.31291455 0.0102595827 0.034663707 0.0122939851
      0.31291455 0.214244217 0.0031340986 0.0112148104 0.00273336237
      0.31291455 0.00352987926 0.0302998703 0.011657889 0.216812626
      0.31291455 0.0122248344 0.0421853065 0.0148263592 0.31291455
      0.0108288303 0.0677186847 0.0251059104 0.31291455 0.298600167
      0.0138940327 0.0310029294 0.0194146726 0.298600167 0.0288242046
      0.0679968446 0.0255156271 0.298600167 0.186135471 0.0660425201
      0.171464652 0.0533170477 0.298600167 0.12656635 0.12264283
      0.0553627163 0.167359889 0.298600167 0.0216706935 0.074488692
      0.0358282402 0.298600167 0.0267084837 0.0537575446 0.0191229079
      0.298600167 0.185763597 0.0499300174 0.159935609 0.0876869261
      0.298600167 0.101240046 0.183158323 0.0503785424 0.121749505
      0.234090298 0.116868027 0.226674691 0.118706383 0.333951235
      0.216843635 0.172578216 0.068217054 0.197149247 0.0799686015
      0.0493858904 0.098257266 0.140088692 0.333951235 0.125120506
      0.060137935 0.0150669133 0.0985651687 0.181405723 0.130559906
      0.23025544 0.0941321254 0.333951235 0.166653007 0.196865752
      0.0418095477 0.120073736 0.0496393479 0.0891373456 0.0522299372
      0.065180108 0.333951235 0.0857303292 0.0798050687 0.0126713784
      0.056525711 0.147600383 0.01468217 0.0494435318 0.0188776907
      0.33142069 0.0111797797 0.0173164606 0.0053273472 0.155654013
      0.33142069 0.0110306367 0.0377739705 0.00358623057 0.33142069
      0.00110253133 0.0122664692 0.00415986124 0.33142069 0.173342437
      0.00997461285 0.0161908492 0.00998674612 0.33142069 0.00709381932
      0.0583269224 0.0154749015 0.172777504 0.33142069 0.00354028423
      0.0129966587 0.00378482835 0.33142069 0.00132190262 0.0481913351
      0.0135672651 0.33142069 0.301481098 0.0088090878 0.0233778097
      0.00727211963 0.170471013 0.00339330593 0.00785693992
      0.00880814623 0.301481098 0.301481098 0.0403077267 0.12318562
      0.0415326804 0.227931932 0.0365329422 0.0541649573 0.0685548931
      0.301481098 0.301481098 0.00728914281 0.0133307651 0.00905857794
      0.207393855 0.0027989361 0.0258696638 0.0167875625 0.301481098
      0.301481098 0.0624734312 0.116755366 0.0318814628 0.301481098
      0.033667434 0.0471804589 0.0586621463 0.301481098 0.257458895
      0.0914837644 0.257458895 0.0875700787 0.257458895 0.0947330818
      0.0809007883 0.0920911357 0.257458895 0.163518965 0.120948382
      0.217814192 0.0985014215 0.257458895 0.107057385 0.033230219
      0.0829475671 0.184424698 0.257458895 0.116761737 0.204395577
      0.0861683637 0.257458895 0.126440793 0.0416309908 0.0847913027
      0.257458895 0.168135092 0.0829461068 0.0954158828 0.167018056
      0.257458895 0.154596418 0.0317860804 0.0540548936 0.145347327
      0.1191715 0.0166074503 0.0138964811 0.00757837482 0.229276627
      0.00610118452 0.00210793945 0.0222490598 0.0926853791 0.232853666
      0.0188740492 0.0783071741 0.00464010844 0.344743937 0.00389478868
      0.00107221131 0.0106167812 0.230271399 0.305181801 0.0923359096
      0.177182913 0.0389315486 0.344743937 0.0945032239 0.13840203
      0.148938164 0.269448251 0.297593772 0.0240752436 0.114017002
      0.0295797624 0.344743937 0.0102371434 0.0465257876 0.0572893322
      0.28929621 0.306656599 0.00777469669 0.0324121974 0.000889129995
      0.222906545 0.00209707813 0.0177691616 0.00634034397 0.306656599
      0.306656599 0.00748654269 0.0344806723 0.00675423117 0.177174374
      0.00463550445 0.0505994521 0.0204715766 0.306656599 0.306656599
      0.00614330359 0.0252993442 0.00551905669 0.306656599 0.00178240077
      0.0163178071 0.00328883249 0.306656599 0.306656599 0.00527204666
      0.0173560623 0.0114888083 0.243703678 0.0129612926 0.046799887
      0.0234612543 0.306656599 0.260155678 0.0230825525 0.0852873847
      0.0275822729 0.228274658 0.0196916629 0.083040826 0.0457789302
      0.260155678 0.260155678 0.0494842231 0.103334956 0.0873123184
      0.260155678 0.0858978629 0.132036686 0.0450265259 0.228698105
      0.260155678 0.0428703092 0.0744075552 0.0912432522 0.260155678
      0.0854651481 0.144423127 0.0790262371 0.260155678 0.260155678
      0.107871875 0.113080852 0.202393666 0.260155678 0.199241817
      0.155111283 0.0817358047 0.17997542 0.282102585 0.11486911
      0.1277031 0.130734727 0.284824342 0.198926687 0.14830178
      0.0217930768 0.257513165 0.0858453512 0.0765027478 0.0347841233
      0.0382940657 0.284824342 0.0963141844 0.0738766417 0.00986919459
      0.119719096 0.195115641 0.140986741 0.145042852 0.284824342
      0.284824342 0.284824342 0.154379219 0.0533558428 0.189378232
      0.0585889108 0.0414888486 0.0699041113 0.159201205 0.284824342
      0.150096625 0.0634211525 0.0109657729 0.0850072876 0.208280101
      0.0160545614 0.0447276123 0.00602431083 0.335357755 0.00614856603
      0.0350839533 0.00943227485 0.19717969 0.335357755 0.00994934887
      0.03485699 0.00390789891 0.272285938 0.00116905663 0.0452819727
      0.0136800585 0.335357755 0.143936783 0.00977461785 0.0354551114
      0.0138471154 0.335357755 0.00686089974 0.0194767267 0.00473092869
      0.139261678 0.335357755 0.00759615004 0.0267744735 0.00550647173
      0.335357755 0.00188758038 0.0511606745 0.0156267919 0.335357755
      0.28580001 0.00131535251 0.00152091798 0.00606832374 0.217965946
      0.00191800867 0.0522461087 0.0193911046 0.28580001 0.28580001
      0.0341481678 0.0539053455 0.0410354026 0.28580001 0.0209332891
      0.0409456305 0.0427637063 0.28580001 0.28580001 0.00122399395
      0.00334046921 0.00838311296 0.28580001 0.00590401283 0.17556335
      0.0835341886 0.28580001 0.178191617 0.0726261511 0.0680332556
      0.0715205818 0.28580001 0.0762744695 0.205137119 0.161553532
      0.207275718 0.268565387 0.0809516758 0.110713579 0.105055287
      0.268565387 0.0877630934 0.0331862494 0.0758421868 0.268565387
      0.166348189 0.043242991 0.0497851484 0.123636276 0.268565387
      0.132160038 0.0555773452 0.0559476689 0.201290682 0.192119732
      0.145690843 0.143594369 0.18106997 0.268565387 0.160516798
      0.166734084 0.14347215 0.176650181 0.1549436 0.0906793326
      0.119647749 0.196355566 0.268565387 0.148651958 0.219682232
      0.115243487 0.151665762 0.166918188 0.0837589055 0.243965685
      0.0374669433 0.291392863 0.0490607433 0.175445408 0.0990526229
      0.205018163 0.251853824 0.0230860375 0.0982142836 0.0274317898
      0.291392863 0.00686087087 0.0880568326 0.0383799523 0.23722598
      0.117240123 0.128847316 0.291392863 0.0541599095 0.291392863
      0.0127714081 0.220342577 0.122926205 0.154795855 0.224758938
      0.0423881263 0.163331002 0.0159027539 0.291392863 0.0064789881
      0.0914400667 0.0320141762 0.205077589 0.323107243 0.00469008228
      0.0163275246 0.00833950192 0.251306891 0.00152247492 0.0366776362
      0.00779671222 0.323107243 0.323107243 0.00361815677 0.00306460424
      0.00423587905 0.0845974833 0.00526888436 0.0159401763
      0.00739969825 0.323107243 0.323107243 0.0197929759 0.0592679232
      0.00599550316 0.283672869 0.00498556998 0.0301192589 0.00782009028
      0.323107243 0.323107243 0.0132446541 0.0229592919 0.00336993253
      0.0364751853 0.00625929143 0.038517233 0.0125943637 0.323107243
      0.281682491 0.0407996811 0.0403539836 0.0535759851 0.159704864
      0.0625189543 0.0652097538 0.0323868878 0.281682491 0.281682491
      0.100516975 0.108557932 0.115166858 0.247095957 0.118442513
      0.0975372493 0.0639817566 0.252675653 0.281682491 0.024684906
      0.0292874239 0.0177027378 0.260475934 0.0232958738 0.0736622065
      0.0271956138 0.281682491 0.254581839 0.0594939739 0.155907899
      0.0721187517 0.281682491 0.112593777 0.16167444 0.0539553314
      0.276809335 0.246344686 0.126056001 0.203050122 0.196631089
      0.267928094 0.203040019 0.119275853 0.0797957256 0.234576255
      0.0876670554 0.0177739803 0.0694820583 0.110940889 0.267928094
      0.0724956244 0.0545382313 0.0241737608 0.0947105736 0.228801221
      0.0830107257 0.267928094 0.186271057 0.267928094 0.26630947
      0.198685825 0.0924462751 0.255665153 0.084091045 0.0170882493
      0.0847251415 0.0980868712 0.267928094 0.0904407799 0.0489050709
      0.0429842696 0.0856292546 0.172808751 0.000180265837 0.00199421099
      0.0123232678 0.351242214 0.00458457693 0.0769656226 0.0188270323
      0.181875408 0.351242214 0.0110146701 0.0385896191 0.00513747428
      0.351242214 0.00441434188 0.102389455 0.0360757709 0.351242214
      0.0904840007 0.000154792695 0.000553459453 0.00663968129
      0.132349968 0.00488556875 0.0364012942 0.00937081315 0.0944807753
      0.351242214 0.0237442907 0.0831793249 0.0217393972 0.351242214
      0.0158405844 0.0668593124 0.035595011 0.351242214 0.282814026
      0.00895302463 0.0292218998 0.00420422852 0.214784861 0.00527966348
      0.1524681 0.102356263 0.282814026 0.282814026 0.080235824
      0.112113625 0.0261694156 0.271815091 0.0447466969 0.193738669
      0.176184669 0.282814026 0.276766926 0.016047392 0.0557421967
      0.0232297145 0.282814026 0.0136137186 0.0542161092 0.0453779735
      0.282814026 0.203745738 0.0327691771 0.0660282075 0.0349845067
      0.282814026 0.0114665404 0.040113382 0.0602048934 0.230380937
      0.282380074 0.150823087 0.192692369 0.0899376944 0.282380074
      0.0918801054 0.167370453 0.126503736 0.220843285 0.20782344
      0.0761457235 0.119028345 0.0986968279 0.282380074 0.0657394379
      0.169429719 0.0797965303 0.134431839 0.161906675 0.0965632647
      0.214051202 0.157923117 0.282380074 0.0630247071 0.0628625974
      0.133011758 0.173473567 0.114509493 0.0793345273 0.223632231
      0.150765777 0.282380074 0.116095565 0.0971316621 0.0980789661
      0.110629268 0.143391743 0.0787267312 0.269784749 0.0296716746
      0.316285104 0.0109657953 0.185100973 0.0946461484 0.144084647
      0.165467545 0.0246214326 0.0827608109 0.00844474416 0.316285104
      0.0110433483 0.0949303433 0.0380045064 0.160361931 0.157892361
      0.0790425539 0.174146324 0.0188773591 0.316285104 0.0410942771
      0.212014616 0.0690742284 0.136406854 0.316285104 0.0480410792
      0.125475168 0.00916763954 0.316285104 0.0215365887 0.0961361229
      0.0343116708 0.316285104 0.28764087 0.0159263015 0.0410935357
      0.00341910264 0.273791015 0.00981824473 0.0370138548 0.0129031278
      0.2820234 0.339622229 0.0117424065 0.027894035 0.00302985706
      0.0541947968 0.00710242242 0.0442010723 0.0143284509 0.339622229
      0.339622229 0.0320728719 0.0579941347 0.00184015627 0.215310231
      0.00987179764 0.045876272 0.0175622124 0.339622229 0.339622229
      0.0167422444 0.0286869667 0.000803144125 0.0250305682
      0.00327263051 0.0403542183 0.0319143683 0.339622229 0.30653128
      0.0196801871 0.0270982794 0.0103903413 0.28935492 0.0128882332
      0.0418549776 0.0136568099 0.30653128 0.193580225 0.0473865829
      0.107670158 0.0488142036 0.30653128 0.0655365735 0.0970952883
      0.0291013978 0.143219367 0.30653128 0.0365139171 0.0512658432
      0.0107061872 0.143365636 0.0142720016 0.0551880635 0.0390738957
      0.30653128 0.30653128 0.089911975 0.108111911 0.0578248054
      0.30653128 0.0795520023 0.123429134 0.0434945337 0.295624793
      0.261360019 0.0733589381 0.24186264 0.181567535 0.310882956
      0.186346024 0.129814431 0.0755144656 0.130717754 0.0907093436
      0.0187112521 0.0425991453 0.109713852 0.285617739 0.061676275
      0.0178647134 0.0312022772 0.0531083196 0.310882956 0.144636512
      0.154822752 0.212408572 0.310882956 0.207652137 0.187277228
      0.0715833977 0.205136612 0.104599081 0.04625668 0.0679255426
      0.106888309 0.310882956 0.0743102133 0.0384262949 0.0218887292
      0.0827822536 0.0329679959 0.00195242534 0.00584107079
      0.00688380608 0.0671442896 0.00171317381 0.000784688804
      0.000413602189 0.0316263363 0.153385118 0.030336421 0.0504970923
      0.0235177819 0.393465877 0.0219969321 0.0718584284 0.0225490816
      0.148064613 0.200876191 0.0327587239 0.0995097458 0.00661251787
      0.393465877 0.00596796768 0.00608889246 0.000216607994 0.198572397
      0.393465877 0.0771296993 0.201524988 0.0220967717 0.393465877
      0.0322320461 0.141327783 0.0272419024 0.393465877 0.135942534
      0.0290378015 0.0402748995 0.0226109345 0.335468471 0.0188103132
      0.0501531996 0.0178923998 0.125976667 0.106189877 0.0196766797
      0.0208056662 0.0212928131 0.335468471 0.0192477163 0.0294230469
      0.0255118869 0.0992063805 0.335468471 0.0433599837 0.0985249802
      0.0106686829 0.335468471 0.0173375364 0.0893406346 0.0197881553
      0.335468471 0.335468471 0.0122432159 0.048448246 0.0230426975
      0.335468471 0.0187878348 0.0823267773 0.0317282081 0.335468471
      0.119787067 0.0634466633 0.0865732878 0.089107424 0.3074781
      0.105171636 0.10295292 0.102813005 0.103768811 0.123611078
      0.0999831706 0.161222219 0.0989629999 0.3074781 0.144259647
      0.0788475871 0.0591665134 0.0953879505 0.3074781 0.0159216728
      0.122196078 0.1098314 0.3074781 0.0925239772 0.195916325
      0.0708342865 0.3074781 0.207495004 0.0680862889 0.206802547
      0.100564048 0.3074781 0.109944955 0.112938017 0.0659230053
      0.207855508 0.165575162 0.122422658 0.176849872 0.0360947661
      0.310656726 0.143080384 0.310656726 0.145853952 0.12772958
      0.192892194 0.0499635115 0.108759232 0.021727331 0.310656726
      0.0554564036 0.128281206 0.0362904184 0.194186747 0.206156686
      0.0550309271 0.0555106625 0.0579187162 0.310656726 0.106535241
      0.160027921 0.10150446 0.191283539 0.235445023 0.010417195
      0.0213399231 0.0328004286 0.310656726 0.0398859978 0.138541102
      0.0428780504 0.235035688 0.310882628 0.0559980758 0.0593232177
      0.0025528837 0.274470717 0.0154819768 0.0797925368 0.0541136414
      0.310882628 0.310882628 0.079629153 0.0471738912 4.06304862e-05
      0.00890921336 0.00282768207 0.071525313 0.0987773612 0.310882628
      0.310882628 0.0316628739 0.0307747647 0.00425092177 0.247545063
      0.0105405385 0.0946670175 0.0640476421 0.310882628 0.310882628
      0.0866513252 0.0412435532 0.00302676344 0.111826509 0.0180355664
      0.0604262426 0.0808132067 0.310882628 0.296601266 0.0597937517
      0.0579589009 0.0178472847 0.0749551505 0.0172581039 0.0687906891
      0.0615864173 0.296601266 0.260680705 0.0717178285 0.124591582
      0.147901222 0.296601266 0.1074894 0.121045113 0.0438206978
      0.260678589 0.296601266 0.0669931993 0.0515935197 0.0243189596
      0.12871179 0.0295126699 0.0411632806 0.0383000076 0.296601266
      0.281216919 0.04571357 0.0979978219 0.190875724 0.269689053
      0.0804870576 0.0651999563 0.043831449 0.296601266 0.150277138
      0.108842514 0.189351007 0.29359743 0.29359743 0.242591873
      0.150447741 0.053856317 0.134382233 0.0566483214 0.0397347249
      0.0779463872 0.113134347 0.29359743 0.073634021 0.03696955
      0.0176140442 0.048425734 0.259970963 0.0499997176 0.160276547
      0.29359743 0.29359743 0.182972103 0.123508535 0.0594487004
      0.29359743 0.101683363 0.0236589275 0.0745472535 0.0542819425
      0.29359743 0.03905949 0.0840833262 0.0299643595 0.104392029
      0.0717036873 0.013325857 0.0412579812 0.00812785514 0.307458133
      0.00589498458 0.036975313 0.00552275311 0.0693400726 0.307458133
      0.0437304862 0.170600429 0.0357547328 0.307458133 0.028829718
      0.225931019 0.0365952104 0.307458133 0.184030727 0.00895031169
      0.0297935065 0.00629453361 0.307458133 0.00336451107 0.0766886845
      0.0186838824 0.184047282 0.307458133 0.0237334985 0.0968343914
      0.0251696799 0.307458133 0.0148033556 0.23250027 0.0447962396
      0.307458133 0.298799247 0.035389401 0.169621885 0.0154544683
      0.141702667 0.0161665697 0.1397883 0.0269067362 0.298799247
      0.29711628 0.0128385779 0.0887315273 0.0237084124 0.298799247
      0.0122665633 0.04510919 0.0138460454 0.298799247 0.298799247
      0.0254138615 0.113358393 0.0109373471 0.0953164101 0.0101836454
      0.106490932 0.0213016532 0.298799247 0.298799247 0.0243382063
      0.0997156203 0.0147039825 0.256917089 0.00803797226 0.0331636854
      0.0110154217 0.298799247 0.17233634 0.0119202863 0.165013716
      0.151473612 0.327027231 0.0713945106 0.0922403932 0.0244991034
      0.174003839 0.101770394 0.0777629018 0.173603758 0.132450297
      0.327027231 0.0933709145 0.057876192 0.0387578756 0.126188472
      0.327027231 0.0339172706 0.183215097 0.0958130434 0.327027231
      0.0391032435 0.0730502605 0.0223508086 0.327027231 0.183198959
      0.0516002551 0.116628624 0.0868867934 0.327027231 0.0507943481
      0.0286352132 0.024896659 0.155931637 0.362703264 0.0384648331
      0.0425959155 0.0872170404 0.35058859 0.00549854524 0.0928424001
      0.0843727589 0.362703264 0.362703264 0.00433674455 0.0161604099
      0.0484702103 0.362703264 0.00525391567 0.217380926 0.0760382041
      0.362703264 0. 0. 0. 0. 0.0421561114 0. 0. 0. 0. 0.000180204224 0.
      0. 0.00035643499 0.362703264 0.00143203256 0. 0. 0.000180204224
      0.241579518 0.0201031081 0.0541513339 0.00743190991 0.365443408
      0.00293727824 0.0515756831 0.0229318533 0.238551617 0.365443408
      0.0510849878 0.0798564181 0.0144794472 0.365443408 0.0473338962
      0.0714738071 0.0361837372 0.365443408 0.0293444898 0.016496731
      0.0524808355 0.00756114256 0.365443408 0.00584704755 0.0469217375
      0.0188572276 0.0295749921 0.101396307 0.047564581 0.114103228
      0.0512640178 0.365443408 0.0220293105 0.0670492873 0.0455091819
      0.112664439 0.32402131 0.0441201888 0.0481771752 0.0247161351
      0.32402131 0.0697636157 0.035893701 0.0187045969 0.32402131
      0.213184252 0.0580718666 0.107506081 0.139359668 0.32402131
      0.150658116 0.112474568 0.0314201787 0.259000152 0.063515611
      0.0270447358 0.0437001735 0.0598273538 0.32402131 0.046229966
      0.0540609173 0.0222461019 0.071443446 0.105770022 0.046211224
      0.0636174828 0.0826307908 0.32402131 0.267872334 0.226340771
      0.00940310024 0.0635558441 0.21697706 0.0623134002 0.166570202
      0.16179055 0.296803415 0.204235628 0.261324018 0.0706589743
      0.249240533 0.0979879871 0.0313517302 0.098912634 0.0274138581
      0.296803415 0.0366276316 0.145934284 0.0456701033 0.0897359625
      0.191853762 0.0710382164 0.159779504 0.151803598 0.296803415
      0.296803415 0.281993449 0.028098017 0.114450373 0.0692510456
      0.0263951365 0.0941609144 0.0651423931 0.296803415 0.0579604246
      0.111628465 0.0249438882 0.0423685424 0.164458096 0.0156761613
      0.0612022839 0.00369634666 0.316755414 0.00400899444 0.0356309749
      0.00835149642 0.168803528 0.316755414 0.0202401504 0.104850285
      0.00242241775 0.316755414 0.0295969658 0.101514958 0.0191927738
      0.316755414 0.0952180699 0.00441559637 0.0263693426 0.0060312557
      0.316755414 0.00784312468 0.0829270035 0.0179476067 0.0970806777
      0.316755414 0.0116688767 0.085886158 0.00448986562 0.316755414
      0.0635224283 0.264750659 0.0462492853 0.316755414 0.305817604
      0.0169403814 0.0561948493 0.000295749254 0.0919939876 0.0235431585
      0.0343682691 0.00656648818 0.305817604 0.305817604 0.0181014631
      0.0511000641 0.0138497241 0.305817604 0.0145802097 0.045788575
      0.0161374286 0.305817604 0.305817604 0.0167953521 0.0533296317
      0.000882565975 0.146481395 0.0458448306 0.092366457 0.0167948864
      0.305817604 0.305817604 0.0309596211 0.0705043674 0.0161166042
      0.305817604 0.0196874831 0.0149375685 0.00379943661 0.305817604
      0.316672742 0.0286786333 0.101658337 0.0904495418 0.356345922
      0.0524000935 0.113746963 0.032846842 0.326934844 0.1022873
      0.0666154698 0.114635251 0.114368662 0.356345922 0.0683534741
      0.050788343 0.061720591 0.103734396 0.198522061 0.0791464597
      0.146790579 0.102603398 0.356345922 0.0714348331 0.0449483357
      0.0100064958 0.206362456 0.060823001 0.13292256 0.0851316527
      0.123743944 0.356345922 0.0701311752 0.0293854792 0.0465632416
      0.0534836911</_>
    <_>
      0.295687169 0.218552589 0.228952244 0.102636099 0.295687169
      0.0746250376 0.139301881 0.0831516013 0.295687169 0.142332941
      0.227293342 0.257676035 0.107024528 0.295687169 0.0738375634
      0.212327495 0.18534027 0.195818439 0.14755258 0.0861250982
      0.0553746186 0.044478789 0.133156702 0.0402383357 0.0469105877
      0.0176038593 0.135100961 0.13602975 0.0818662122 0.0916760266
      0.0742729306 0.295687169 0.0329346396 0.0781308338 0.0505446419
      0.145133272 0.0588866696 0.134525567 0.144574076 0.0797905475
      0.381147087 0.0577850752 0.137268066 0.123512283 0.0770420358
      0.000999596436 0. 0. 0.00194435986 0.0301242545 0.00142631074 0.
      0. 0.000999596436 0.275734395 0.0907556862 0.235920697 0.109417915
      0.381147087 0.0187561233 0.0424567237 0.0363750942 0.211514935
      0.381147087 0.0776764452 0.230122969 0.0787440464 0.238063872
      0.0009881882 0. 0. 0.381147087 0.001293362 0. 0. 0. 0. 0. 0. 0.
      0.001293362 0.00153688062 0. 0. 0. 0. 0. 0. 0. 0.00153688062
      0.498080462 0.0131282061 0.0394712202 0.0166381188 0.0259533897 0.
      0. 0. 0.498080462 0.498080462 0. 0. 0. 0. 0. 0. 0. 0.498080462
      0.00133025262 0. 0. 0. 0. 0. 0. 0. 0.00133025262 0.00152437389 0.
      0. 0. 0. 0. 0. 0. 0.00152437389 0.498751074 0. 0. 0. 0. 0. 0. 0.
      0.498751074 0.498751074 0. 0. 0. 0. 0. 0. 0. 0.498751074
      0.00117890537 0. 0. 0. 0. 0. 0. 0. 0.00117890537 0.000873821904 0.
      0. 0. 0. 0. 0. 0. 0.000873821904 0.480481625 0. 0. 0.000865453447
      0.0508549325 0. 0.0367277674 0.0122738061 0.480481625 0.480481625
      2.14940228e-05 6.43180683e-05 0.00190399762 0.245760143 0.
      0.0808010921 0.0270023737 0.480481625 0.000669962901 0.00180081697
      0.00183048856 0.0252415463 0.277009934 0.00667995214
      0.000832725258 0.00120210869 0.00124143763 0.0638949648
      0.0614773072 0.0450014025 0.188019946 0.325147003 0.0325769112
      0.00411046902 0.00847013667 0.0517695248 0.325147003 0.00213455595
      0.000367807574 0.0241187233 0.287140518 0.0132009126 0.0365938656
      0.0359203033 0.325147003 0.325147003 0.0454479046 0.017596174
      0.144820377 0.325147003 0.0933855921 0.288675547 0.18625173
      0.325147003 0.103583395 0.0851312801 0.075897105 0.196703106
      0.295743346 0.032502234 0.00987891201 0.0162974037 0.0878535211
      0.0658123121 0.0553712398 0.0841443837 0.284057468 0.295743346
      0.140404582 0.0227172226 0.0236382596 0.0690575242 0.264157027
      0.104712762 0.065339528 0.246032238 0.295743346 0.0940334201
      0.237440199 0.121772192 0.131984815 0.183889285 0.171338841
      0.0972473547 0.295743346 0.295743346 0.212873638 0.0440330841
      0.0313097611 0.0596353561 0.198352888 0.00642938446 0.00642145239
      0.0121785253 0.108542293 0.0155650089 0. 0. 0.207538649 0.32374239
      0.00568372477 0.0983658507 0.103236668 0.578742266 0.0371074378 0.
      0. 0.321073979 0. 0. 0. 0. 0. 0. 0. 0. 0. 0. 4.55394984e-05
      0.000136271032 0.0027525702 0.578742266 0.0041190749 0. 0. 0.
      0.126658231 0.0378410667 0.115345441 0.0282415841 0.37997818
      0.00185748597 0. 0. 0.0605684146 0.37997818 0.0604099222
      0.181365252 0.0499736145 0.37997818 0.00112305616 0. 0. 0.37997818
      0.0357288718 0.0116411531 0.0349868387 0.0064693694 0.37997818
      0.00112305616 0. 0. 0.00907490123 0.151929542 0.0455264598
      0.12334083 0.0123410523 0.37997818 0.000873488141 0. 0.
      0.111044198 0.33195585 0.0102916798 0.0313745439 0.0100883534
      0.0586331934 0. 0. 0. 0.33195585 0.33195585 0. 0. 0. 0. 0. 0. 0.
      0.33195585 0.288172156 0.0980828255 0.212624431 0.00243459106
      0.147196934 0. 0. 0. 0.228305489 0.33195585 0.234551325
      0.246449947 0. 0. 0. 0.0167089906 0.0564375035 0.33195585
